<?xml version="1.0"?>
<opencv_storage>
<opencv_ml_svm>
  <format>3</format>
  <svmType>C_SVC</svmType>
  <kernel>
    <type>LINEAR</type></kernel>
  <C>1.0000000000000001e-001</C>
  <term_criteria><iterations>1000</iterations></term_criteria>
  <var_count>1200</var_count>
  <class_count>10</class_count>
  <class_labels type_id="opencv-matrix">
    <rows>10</rows>
    <cols>1</cols>
    <dt>i</dt>
    <data>
      0 1 2 3 4 5 6 7 8 9</data></class_labels>
  <sv_total>45</sv_total>
  <support_vectors>
    <_>
      -1.51879283e-006 -1.51879283e-006 -1.51879283e-006 1.51784491e-006
      1.51784491e-006 1.51784491e-006 -9.65282084e-007 -9.65282084e-007
      -9.65282084e-007 1.22955257e-007 1.22955257e-007 1.22955257e-007
      -2.43388769e-007 -2.43388769e-007 -2.43388769e-007
      -1.45983075e-008 -1.45983075e-008 -1.45983075e-008 9.64535189e-008
      9.64535189e-008 9.64535189e-008 -4.35939796e-007 -4.35939796e-007
      -4.35939796e-007 7.02931629e-007 7.02931629e-007 7.02931629e-007
      -2.12151940e-006 -2.12151940e-006 -2.12151940e-006
      -4.48012497e-006 -4.48012497e-006 -4.48012497e-006 4.40777058e-006
      4.40777058e-006 4.40777058e-006 -1.22806637e-006 -1.22806637e-006
      -1.22806637e-006 -2.97874203e-006 -2.97874203e-006
      -2.97874203e-006 2.88046544e-006 2.88046544e-006 2.88046544e-006
      -2.04746266e-006 -2.04746266e-006 -2.04746266e-006
      -9.23897936e-009 -9.23897936e-009 -9.23897936e-009 1.16075023e-006
      1.16075023e-006 1.16075023e-006 -1.50586879e-006 -1.50586879e-006
      -1.50586879e-006 2.16150923e-007 2.16150923e-007 2.16150923e-007
      6.60690375e-007 6.60690375e-007 6.60690375e-007 -1.60278262e-007
      -1.60278262e-007 -1.60278262e-007 -5.29249071e-008
      -5.29249071e-008 -5.29249071e-008 -1.57979301e-007
      -1.57979301e-007 -1.57979301e-007 3.39507523e-007 3.39507523e-007
      3.39507523e-007 1.75653810e-007 1.75653810e-007 1.75653810e-007
      4.11759054e-008 4.11759054e-008 4.11759054e-008 4.54632385e-007
      4.54632385e-007 4.54632385e-007 -2.84931707e-006 -2.84931707e-006
      -2.84931707e-006 2.43304544e-006 2.43304544e-006 2.43304544e-006
      3.49242396e-006 3.49242396e-006 3.49242396e-006 -1.81872929e-006
      -1.81872929e-006 -1.81872929e-006 -1.24345740e-006
      -1.24345740e-006 -1.24345740e-006 3.71334067e-006 3.71334067e-006
      3.71334067e-006 -1.07840185e-006 -1.07840185e-006 -1.07840185e-006
      2.78719108e-006 2.78719108e-006 2.78719108e-006 1.60433629e-007
      1.60433629e-007 1.60433629e-007 -3.04934559e-007 -3.04934559e-007
      -3.04934559e-007 1.13656881e-006 1.13656881e-006 1.13656881e-006
      -4.11390658e-007 -4.11390658e-007 -4.11390658e-007 4.13772739e-007
      4.13772739e-007 4.13772739e-007 -3.34519854e-007 -3.34519854e-007
      -3.34519854e-007 -1.60420697e-007 -1.60420697e-007
      -1.60420697e-007 1.51675394e-007 1.51675394e-007 1.51675394e-007
      -6.14381861e-007 -6.14381861e-007 -6.14381861e-007
      -1.75748335e-006 -1.75748335e-006 -1.75748335e-006
      -1.03294644e-006 -1.03294644e-006 -1.03294644e-006
      -1.30702915e-006 -1.30702915e-006 -1.30702915e-006
      -1.27544354e-005 -1.27544354e-005 -1.27544354e-005
      -9.52162100e-006 -9.52162100e-006 -9.52162100e-006
      -9.27610131e-007 -9.27610131e-007 -9.27610131e-007
      -1.14102484e-004 -1.14102484e-004 -1.14102484e-004
      -4.27616069e-005 -4.27616069e-005 -4.27616069e-005 6.09231865e-005
      6.09231865e-005 6.09231865e-005 1.47018418e-005 1.47018418e-005
      1.47018418e-005 -3.46055970e-007 -3.46055970e-007 -3.46055970e-007
      1.61079174e-006 1.61079174e-006 1.61079174e-006 2.39164592e-007
      2.39164592e-007 2.39164592e-007 -6.11730798e-007 -6.11730798e-007
      -6.11730798e-007 2.85460004e-007 2.85460004e-007 2.85460004e-007
      -9.88705892e-007 -9.88705892e-007 -9.88705892e-007 2.92341326e-007
      2.92341326e-007 2.92341326e-007 4.08592001e-007 4.08592001e-007
      4.08592001e-007 2.32760996e-007 2.32760996e-007 2.32760996e-007
      -8.35408457e-007 -8.35408457e-007 -8.35408457e-007
      -1.54035079e-005 -1.54035079e-005 -1.54035079e-005
      -2.57285901e-005 -2.57285901e-005 -2.57285901e-005
      -2.66199604e-005 -2.66199604e-005 -2.66199604e-005
      -3.33391945e-005 -3.33391945e-005 -3.33391945e-005 7.14808775e-005
      7.14808775e-005 7.14808775e-005 2.12869360e-004 2.12869360e-004
      2.12869360e-004 3.26704212e-005 3.26704212e-005 3.26704212e-005
      -1.11913709e-004 -1.11913709e-004 -1.11913709e-004
      -1.84170931e-005 -1.84170931e-005 -1.84170931e-005 4.21602344e-005
      4.21602344e-005 4.21602344e-005 1.03525454e-005 1.03525454e-005
      1.03525454e-005 -2.48242742e-007 -2.48242742e-007 -2.48242742e-007
      3.50421743e-007 3.50421743e-007 3.50421743e-007 3.04047404e-007
      3.04047404e-007 3.04047404e-007 5.70857196e-007 5.70857196e-007
      5.70857196e-007 -1.33024960e-008 -1.33024960e-008 -1.33024960e-008
      1.10203018e-007 1.10203018e-007 1.10203018e-007 5.25647749e-007
      5.25647749e-007 5.25647749e-007 -2.48153810e-007 -2.48153810e-007
      -2.48153810e-007 -5.24117286e-006 -5.24117286e-006
      -5.24117286e-006 -2.06524765e-005 -2.06524765e-005
      -2.06524765e-005 -3.74478368e-005 -3.74478368e-005
      -3.74478368e-005 -2.38477005e-005 -2.38477005e-005
      -2.38477005e-005 1.78864411e-005 1.78864411e-005 1.78864411e-005
      9.51515394e-005 9.51515394e-005 9.51515394e-005 1.26408166e-004
      1.26408166e-004 1.26408166e-004 4.76836176e-005 4.76836176e-005
      4.76836176e-005 1.05895509e-004 1.05895509e-004 1.05895509e-004
      -8.88152208e-005 -8.88152208e-005 -8.88152208e-005 1.05782647e-005
      1.05782647e-005 1.05782647e-005 2.67288960e-005 2.67288960e-005
      2.67288960e-005 -7.99231111e-006 -7.99231111e-006 -7.99231111e-006
      9.28430325e-007 9.28430325e-007 9.28430325e-007 9.69618910e-008
      9.69618910e-008 9.69618910e-008 1.49594791e-006 1.49594791e-006
      1.49594791e-006 -9.86800728e-007 -9.86800728e-007 -9.86800728e-007
      8.46660498e-007 8.46660498e-007 8.46660498e-007 -6.92419277e-008
      -6.92419277e-008 -6.92419277e-008 -8.85836812e-007
      -8.85836812e-007 -8.85836812e-007 1.59275589e-006 1.59275589e-006
      1.59275589e-006 3.62126480e-006 3.62126480e-006 3.62126480e-006
      -3.61072034e-006 -3.61072034e-006 -3.61072034e-006 4.02212572e-005
      4.02212572e-005 4.02212572e-005 5.21273869e-005 5.21273869e-005
      5.21273869e-005 2.25339500e-005 2.25339500e-005 2.25339500e-005
      4.06690469e-006 4.06690469e-006 4.06690469e-006 -3.41777595e-005
      -3.41777595e-005 -3.41777595e-005 1.19154625e-004 1.19154625e-004
      1.19154625e-004 -7.06262363e-005 -7.06262363e-005 -7.06262363e-005
      -9.53850613e-005 -9.53850613e-005 -9.53850613e-005 3.81801044e-007
      3.81801044e-007 3.81801044e-007 2.09595401e-005 2.09595401e-005
      2.09595401e-005 1.31451077e-006 1.31451077e-006 1.31451077e-006
      3.59327657e-007 3.59327657e-007 3.59327657e-007 5.37668825e-008
      5.37668825e-008 5.37668825e-008 -5.16096009e-007 -5.16096009e-007
      -5.16096009e-007 8.40153064e-007 8.40153064e-007 8.40153064e-007
      -2.08734832e-007 -2.08734832e-007 -2.08734832e-007 5.74859627e-008
      5.74859627e-008 5.74859627e-008 9.12899304e-006 9.12899304e-006
      9.12899304e-006 1.23654281e-005 1.23654281e-005 1.23654281e-005
      3.89115194e-005 3.89115194e-005 3.89115194e-005 1.01140868e-004
      1.01140868e-004 1.01140868e-004 2.88577066e-005 2.88577066e-005
      2.88577066e-005 -8.66200498e-005 -8.66200498e-005 -8.66200498e-005
      8.08583281e-005 8.08583281e-005 8.08583281e-005 5.76718521e-005
      5.76718521e-005 5.76718521e-005 3.97939402e-005 3.97939402e-005
      3.97939402e-005 2.11504903e-005 2.11504903e-005 2.11504903e-005
      7.77075797e-007 7.77075797e-007 7.77075797e-007 9.22418330e-005
      9.22418330e-005 9.22418330e-005 7.03403057e-005 7.03403057e-005
      7.03403057e-005 2.91388324e-006 2.91388324e-006 2.91388324e-006
      1.38081850e-006 1.38081850e-006 1.38081850e-006 -1.15625184e-007
      -1.15625184e-007 -1.15625184e-007 1.13696865e-008 1.13696865e-008
      1.13696865e-008 -3.66413161e-007 -3.66413161e-007 -3.66413161e-007
      3.47553680e-007 3.47553680e-007 3.47553680e-007 1.80129774e-007
      1.80129774e-007 1.80129774e-007 2.05815631e-005 2.05815631e-005
      2.05815631e-005 5.06182587e-005 5.06182587e-005 5.06182587e-005
      9.53837953e-005 9.53837953e-005 9.53837953e-005 8.24469025e-005
      8.24469025e-005 8.24469025e-005 -3.97341682e-005 -3.97341682e-005
      -3.97341682e-005 5.29803656e-005 5.29803656e-005 5.29803656e-005
      4.13250891e-005 4.13250891e-005 4.13250891e-005 -6.21228901e-005
      -6.21228901e-005 -6.21228901e-005 -4.09514359e-005
      -4.09514359e-005 -4.09514359e-005 1.70537567e-006 1.70537567e-006
      1.70537567e-006 1.22874801e-004 1.22874801e-004 1.22874801e-004
      1.49872954e-004 1.49872954e-004 1.49872954e-004 1.38652642e-004
      1.38652642e-004 1.38652642e-004 3.27111884e-005 3.27111884e-005
      3.27111884e-005 -1.92036932e-005 -1.92036932e-005 -1.92036932e-005
      -2.93507867e-007 -2.93507867e-007 -2.93507867e-007 1.09046164e-006
      1.09046164e-006 1.09046164e-006 3.18503385e-006 3.18503385e-006
      3.18503385e-006 -2.84086559e-006 -2.84086559e-006 -2.84086559e-006
      6.70558211e-006 6.70558211e-006 6.70558211e-006 4.85586024e-005
      4.85586024e-005 4.85586024e-005 -1.64679586e-005 -1.64679586e-005
      -1.64679586e-005 -6.76436321e-006 -6.76436321e-006
      -6.76436321e-006 -1.01445272e-004 -1.01445272e-004
      -1.01445272e-004 3.85680796e-005 3.85680796e-005 3.85680796e-005
      6.45380787e-005 6.45380787e-005 6.45380787e-005 -2.93579706e-005
      -2.93579706e-005 -2.93579706e-005 -1.64466925e-004
      -1.64466925e-004 -1.64466925e-004 -2.66113966e-005
      -2.66113966e-005 -2.66113966e-005 8.29561468e-005 8.29561468e-005
      8.29561468e-005 1.68770188e-004 1.68770188e-004 1.68770188e-004
      7.74550863e-005 7.74550863e-005 7.74550863e-005 1.07995555e-004
      1.07995555e-004 1.07995555e-004 9.09237569e-005 9.09237569e-005
      9.09237569e-005 -1.37842726e-005 -1.37842726e-005 -1.37842726e-005
      -1.20331651e-006 -1.20331651e-006 -1.20331651e-006
      -3.22082360e-006 -3.22082360e-006 -3.22082360e-006 4.27527038e-006
      4.27527038e-006 4.27527038e-006 3.08287849e-006 3.08287849e-006
      3.08287849e-006 2.78033149e-005 2.78033149e-005 2.78033149e-005
      6.27881964e-005 6.27881964e-005 6.27881964e-005 1.32915538e-005
      1.32915538e-005 1.32915538e-005 6.00182175e-005 6.00182175e-005
      6.00182175e-005 1.09616885e-004 1.09616885e-004 1.09616885e-004
      1.50320004e-004 1.50320004e-004 1.50320004e-004 -1.07114080e-004
      -1.07114080e-004 -1.07114080e-004 -2.88221840e-004
      -2.88221840e-004 -2.88221840e-004 -2.10450467e-004
      -2.10450467e-004 -2.10450467e-004 -1.06188363e-005
      -1.06188363e-005 -1.06188363e-005 4.38630268e-005 4.38630268e-005
      4.38630268e-005 1.57097209e-004 1.57097209e-004 1.57097209e-004
      7.70673869e-005 7.70673869e-005 7.70673869e-005 8.07075266e-005
      8.07075266e-005 8.07075266e-005 1.19220560e-004 1.19220560e-004
      1.19220560e-004 -1.26988505e-006 -1.26988505e-006 -1.26988505e-006
      2.87909896e-009 2.87909896e-009 2.87909896e-009 9.28063002e-007
      9.28063002e-007 9.28063002e-007 -6.55305257e-007 -6.55305257e-007
      -6.55305257e-007 5.83837277e-007 5.83837277e-007 5.83837277e-007
      5.17557128e-005 5.17557128e-005 5.17557128e-005 1.11702691e-004
      1.11702691e-004 1.11702691e-004 9.78863536e-005 9.78863536e-005
      9.78863536e-005 1.26588566e-004 1.26588566e-004 1.26588566e-004
      2.89946009e-004 2.89946009e-004 2.89946009e-004 1.01990838e-004
      1.01990838e-004 1.01990838e-004 -1.67221282e-004 -1.67221282e-004
      -1.67221282e-004 -3.84710642e-004 -3.84710642e-004
      -3.84710642e-004 -1.24305428e-004 -1.24305428e-004
      -1.24305428e-004 1.26958810e-004 1.26958810e-004 1.26958810e-004
      8.62967863e-005 8.62967863e-005 8.62967863e-005 1.22740705e-004
      1.22740705e-004 1.22740705e-004 5.08896337e-005 5.08896337e-005
      5.08896337e-005 9.45218053e-005 9.45218053e-005 9.45218053e-005
      1.05850922e-004 1.05850922e-004 1.05850922e-004 -4.59646208e-006
      -4.59646208e-006 -4.59646208e-006 -1.69186092e-006
      -1.69186092e-006 -1.69186092e-006 5.09968822e-006 5.09968822e-006
      5.09968822e-006 -4.39159493e-007 -4.39159493e-007 -4.39159493e-007
      3.42362773e-006 3.42362773e-006 3.42362773e-006 5.74868864e-005
      5.74868864e-005 5.74868864e-005 1.13049588e-004 1.13049588e-004
      1.13049588e-004 6.52251401e-005 6.52251401e-005 6.52251401e-005
      1.91102677e-004 1.91102677e-004 1.91102677e-004 2.90832511e-004
      2.90832511e-004 2.90832511e-004 5.82794455e-005 5.82794455e-005
      5.82794455e-005 -2.89474265e-004 -2.89474265e-004 -2.89474265e-004
      -3.52630857e-004 -3.52630857e-004 -3.52630857e-004
      -1.06165753e-005 -1.06165753e-005 -1.06165753e-005 1.62403900e-004
      1.62403900e-004 1.62403900e-004 4.52467430e-005 4.52467430e-005
      4.52467430e-005 9.97181705e-005 9.97181705e-005 9.97181705e-005
      1.10226683e-004 1.10226683e-004 1.10226683e-004 1.30705987e-004
      1.30705987e-004 1.30705987e-004 6.40845537e-005 6.40845537e-005
      6.40845537e-005 -1.59024717e-006 -1.59024717e-006 -1.59024717e-006
      -1.56453112e-007 -1.56453112e-007 -1.56453112e-007
      -8.54505402e-007 -8.54505402e-007 -8.54505402e-007
      -1.92843731e-006 -1.92843731e-006 -1.92843731e-006
      -1.77768868e-006 -1.77768868e-006 -1.77768868e-006 5.27363591e-005
      5.27363591e-005 5.27363591e-005 7.97670727e-005 7.97670727e-005
      7.97670727e-005 6.34011813e-005 6.34011813e-005 6.34011813e-005
      1.11935835e-004 1.11935835e-004 1.11935835e-004 2.67303636e-004
      2.67303636e-004 2.67303636e-004 9.33677511e-005 9.33677511e-005
      9.33677511e-005 -2.09013306e-004 -2.09013306e-004 -2.09013306e-004
      -1.14371229e-004 -1.14371229e-004 -1.14371229e-004 7.96761815e-005
      7.96761815e-005 7.96761815e-005 2.62018904e-004 2.62018904e-004
      2.62018904e-004 1.22466314e-004 1.22466314e-004 1.22466314e-004
      1.07136068e-004 1.07136068e-004 1.07136068e-004 1.57081115e-004
      1.57081115e-004 1.57081115e-004 9.19390441e-005 9.19390441e-005
      9.19390441e-005 2.02471674e-005 2.02471674e-005 2.02471674e-005
      5.91078731e-007 5.91078731e-007 5.91078731e-007 5.47458171e-007
      5.47458171e-007 5.47458171e-007 -1.58477849e-006 -1.58477849e-006
      -1.58477849e-006 8.32926253e-006 8.32926253e-006 8.32926253e-006
      -1.36512449e-006 -1.36512449e-006 -1.36512449e-006 3.32874224e-005
      3.32874224e-005 3.32874224e-005 1.23043690e-004 1.23043690e-004
      1.23043690e-004 1.60871801e-004 1.60871801e-004 1.60871801e-004
      6.30149661e-005 6.30149661e-005 6.30149661e-005 4.01442485e-005
      4.01442485e-005 4.01442485e-005 6.40734361e-005 6.40734361e-005
      6.40734361e-005 -2.82977649e-004 -2.82977649e-004 -2.82977649e-004
      -1.37045688e-004 -1.37045688e-004 -1.37045688e-004 1.68704719e-004
      1.68704719e-004 1.68704719e-004 1.81482479e-004 1.81482479e-004
      1.81482479e-004 1.60478285e-005 1.60478285e-005 1.60478285e-005
      -4.99487760e-005 -4.99487760e-005 -4.99487760e-005 3.46515626e-005
      3.46515626e-005 3.46515626e-005 2.85223450e-005 2.85223450e-005
      2.85223450e-005 -1.06369916e-005 -1.06369916e-005 -1.06369916e-005
      8.11338111e-007 8.11338111e-007 8.11338111e-007 -1.07804010e-006
      -1.07804010e-006 -1.07804010e-006 -2.11469660e-006
      -2.11469660e-006 -2.11469660e-006 -2.34390768e-006
      -2.34390768e-006 -2.34390768e-006 3.37618872e-006 3.37618872e-006
      3.37618872e-006 1.75560108e-005 1.75560108e-005 1.75560108e-005
      5.66381023e-005 5.66381023e-005 5.66381023e-005 9.55791620e-005
      9.55791620e-005 9.55791620e-005 -5.97844482e-005 -5.97844482e-005
      -5.97844482e-005 2.27035271e-005 2.27035271e-005 2.27035271e-005
      1.16971612e-004 1.16971612e-004 1.16971612e-004 -1.19259072e-004
      -1.19259072e-004 -1.19259072e-004 -1.53629662e-004
      -1.53629662e-004 -1.53629662e-004 1.20765966e-004 1.20765966e-004
      1.20765966e-004 -5.53188365e-005 -5.53188365e-005 -5.53188365e-005
      -1.22440833e-004 -1.22440833e-004 -1.22440833e-004
      -7.06740102e-005 -7.06740102e-005 -7.06740102e-005 1.23787231e-005
      1.23787231e-005 1.23787231e-005 -1.08077693e-005 -1.08077693e-005
      -1.08077693e-005 -2.64590508e-005 -2.64590508e-005
      -2.64590508e-005 -2.07769403e-006 -2.07769403e-006
      -2.07769403e-006 1.57943532e-006 1.57943532e-006 1.57943532e-006
      3.64065841e-007 3.64065841e-007 3.64065841e-007 -1.15752641e-006
      -1.15752641e-006 -1.15752641e-006 3.91438471e-006 3.91438471e-006
      3.91438471e-006 1.57139966e-005 1.57139966e-005 1.57139966e-005
      3.99829878e-005 3.99829878e-005 3.99829878e-005 -6.34553071e-005
      -6.34553071e-005 -6.34553071e-005 -1.26756393e-004
      -1.26756393e-004 -1.26756393e-004 1.02390615e-004 1.02390615e-004
      1.02390615e-004 1.46528662e-004 1.46528662e-004 1.46528662e-004
      7.47000886e-005 7.47000886e-005 7.47000886e-005 3.28220958e-005
      3.28220958e-005 3.28220958e-005 4.49689505e-005 4.49689505e-005
      4.49689505e-005 -5.75642080e-005 -5.75642080e-005 -5.75642080e-005
      1.77893617e-005 1.77893617e-005 1.77893617e-005 4.17408519e-005
      4.17408519e-005 4.17408519e-005 3.35281547e-005 3.35281547e-005
      3.35281547e-005 2.23327470e-006 2.23327470e-006 2.23327470e-006
      -3.57829822e-006 -3.57829822e-006 -3.57829822e-006
      -6.32391732e-007 -6.32391732e-007 -6.32391732e-007
      -2.04565154e-007 -2.04565154e-007 -2.04565154e-007 3.91314359e-007
      3.91314359e-007 3.91314359e-007 -1.38143423e-006 -1.38143423e-006
      -1.38143423e-006 2.39470182e-006 2.39470182e-006 2.39470182e-006
      2.04562402e-005 2.04562402e-005 2.04562402e-005 7.28797822e-005
      7.28797822e-005 7.28797822e-005 -2.21218033e-005 -2.21218033e-005
      -2.21218033e-005 -4.93096632e-005 -4.93096632e-005
      -4.93096632e-005 5.21170296e-005 5.21170296e-005 5.21170296e-005
      9.93407084e-005 9.93407084e-005 9.93407084e-005 1.62847835e-004
      1.62847835e-004 1.62847835e-004 1.45522019e-004 1.45522019e-004
      1.45522019e-004 5.00437636e-006 5.00437636e-006 5.00437636e-006
      -6.73338218e-005 -6.73338218e-005 -6.73338218e-005 4.43344252e-005
      4.43344252e-005 4.43344252e-005 3.66103159e-005 3.66103159e-005
      3.66103159e-005 1.67667122e-006 1.67667122e-006 1.67667122e-006 0.
      0. 0. 0. 0. 0. 0. 0. 0. 0. 0. 0. -1.23068355e-006 -1.23068355e-006
      -1.23068355e-006 8.02687646e-006 8.02687646e-006 8.02687646e-006
      1.04718345e-006 1.04718345e-006 1.04718345e-006 3.03878460e-005
      3.03878460e-005 3.03878460e-005 6.64197651e-005 6.64197651e-005
      6.64197651e-005 5.06803881e-005 5.06803881e-005 5.06803881e-005
      4.75910674e-005 4.75910674e-005 4.75910674e-005 6.14887176e-005
      6.14887176e-005 6.14887176e-005 9.58866731e-005 9.58866731e-005
      9.58866731e-005 9.21096580e-005 9.21096580e-005 9.21096580e-005
      9.10099407e-005 9.10099407e-005 9.10099407e-005 3.56830933e-005
      3.56830933e-005 3.56830933e-005 -6.13864177e-005 -6.13864177e-005
      -6.13864177e-005 1.37182515e-005 1.37182515e-005 1.37182515e-005
      -1.91109189e-006 -1.91109189e-006 -1.91109189e-006 5.68292080e-006
      5.68292080e-006 5.68292080e-006 0. 0. 0. 0. 0. 0. 0. 0. 0. 0. 0.
      0. 1.80361076e-006 1.80361076e-006 1.80361076e-006
      -2.06383106e-006 -2.06383106e-006 -2.06383106e-006
      -4.90449963e-007 -4.90449963e-007 -4.90449963e-007 1.26848556e-006
      1.26848556e-006 1.26848556e-006 1.16362503e-006 1.16362503e-006
      1.16362503e-006 2.53912503e-006 2.53912503e-006 2.53912503e-006
      5.33483217e-006 5.33483217e-006 5.33483217e-006 -2.46933405e-006
      -2.46933405e-006 -2.46933405e-006 -2.03747140e-006
      -2.03747140e-006 -2.03747140e-006 -8.91295940e-007
      -8.91295940e-007 -8.91295940e-007 2.47308321e-007 2.47308321e-007
      2.47308321e-007 -3.38774271e-007 -3.38774271e-007 -3.38774271e-007
      3.80999904e-006 3.80999904e-006 3.80999904e-006 1.36078995e-006
      1.36078995e-006 1.36078995e-006 -5.43468389e-007 -5.43468389e-007
      -5.43468389e-007 -3.61713717e-007 -3.61713717e-007
      -3.61713717e-007 0. 0. 0. 0. 0. 0. 0. 0. 0. 0. 0. 0.
      8.41452902e-007 8.41452902e-007 8.41452902e-007 -2.67158748e-006
      -2.67158748e-006 -2.67158748e-006 7.00348710e-006 7.00348710e-006
      7.00348710e-006 1.52566179e-006 1.52566179e-006 1.52566179e-006
      -1.57209854e-006 -1.57209854e-006 -1.57209854e-006
      -1.55532155e-006 -1.55532155e-006 -1.55532155e-006 5.16767500e-007
      5.16767500e-007 5.16767500e-007 6.13644488e-006 6.13644488e-006
      6.13644488e-006 -5.62830053e-007 -5.62830053e-007 -5.62830053e-007
      -2.21473840e-007 -2.21473840e-007 -2.21473840e-007 2.63692027e-006
      2.63692027e-006 2.63692027e-006 -1.77155152e-006 -1.77155152e-006
      -1.77155152e-006 -2.72774923e-006 -2.72774923e-006
      -2.72774923e-006 -9.14549958e-007 -9.14549958e-007
      -9.14549958e-007 2.95186464e-006 2.95186464e-006 2.95186464e-006
      -7.67198287e-007 -7.67198287e-007 -7.67198287e-007 0. 0. 0. 0. 0.
      0. 0. 0. 0. 0. 0. 0.</_>
    <_>
      -4.00397857e-006 -4.00397857e-006 -4.00397857e-006 6.01158763e-006
      6.01158763e-006 6.01158763e-006 -5.73557463e-006 -5.73557463e-006
      -5.73557463e-006 -1.21871437e-006 -1.21871437e-006
      -1.21871437e-006 4.97680139e-006 4.97680139e-006 4.97680139e-006
      3.67797497e-007 3.67797497e-007 3.67797497e-007 -4.36049140e-006
      -4.36049140e-006 -4.36049140e-006 -5.37472033e-007
      -5.37472033e-007 -5.37472033e-007 -1.25488477e-005
      -1.25488477e-005 -1.25488477e-005 -9.73629653e-007
      -9.73629653e-007 -9.73629653e-007 -1.33893145e-005
      -1.33893145e-005 -1.33893145e-005 1.20545292e-005 1.20545292e-005
      1.20545292e-005 3.56264331e-006 3.56264331e-006 3.56264331e-006
      -2.04139724e-006 -2.04139724e-006 -2.04139724e-006 1.16687279e-005
      1.16687279e-005 1.16687279e-005 -1.07202482e-006 -1.07202482e-006
      -1.07202482e-006 2.23386519e-006 2.23386519e-006 2.23386519e-006
      2.56680505e-006 2.56680505e-006 2.56680505e-006 -1.46450998e-006
      -1.46450998e-006 -1.46450998e-006 4.96860366e-007 4.96860366e-007
      4.96860366e-007 -2.61031505e-006 -2.61031505e-006 -2.61031505e-006
      -1.39559620e-006 -1.39559620e-006 -1.39559620e-006 6.82016844e-006
      6.82016844e-006 6.82016844e-006 -9.56496297e-006 -9.56496297e-006
      -9.56496297e-006 1.32140531e-006 1.32140531e-006 1.32140531e-006
      9.12245923e-006 9.12245923e-006 9.12245923e-006 -3.55518423e-005
      -3.55518423e-005 -3.55518423e-005 -3.39892140e-005
      -3.39892140e-005 -3.39892140e-005 -9.90287572e-006
      -9.90287572e-006 -9.90287572e-006 -8.37797124e-005
      -8.37797124e-005 -8.37797124e-005 -5.03056108e-005
      -5.03056108e-005 -5.03056108e-005 -1.73880362e-005
      -1.73880362e-005 -1.73880362e-005 -4.85899500e-006
      -4.85899500e-006 -4.85899500e-006 6.76546597e-006 6.76546597e-006
      6.76546597e-006 6.52998051e-006 6.52998051e-006 6.52998051e-006
      5.20253434e-006 5.20253434e-006 5.20253434e-006 -5.73405214e-006
      -5.73405214e-006 -5.73405214e-006 1.16246360e-006 1.16246360e-006
      1.16246360e-006 -4.03798140e-007 -4.03798140e-007 -4.03798140e-007
      2.44453258e-006 2.44453258e-006 2.44453258e-006 -9.88652801e-007
      -9.88652801e-007 -9.88652801e-007 -9.70996371e-006
      -9.70996371e-006 -9.70996371e-006 -7.89615569e-006
      -7.89615569e-006 -7.89615569e-006 5.46961519e-006 5.46961519e-006
      5.46961519e-006 -4.25640155e-006 -4.25640155e-006 -4.25640155e-006
      -3.34966062e-005 -3.34966062e-005 -3.34966062e-005
      -1.58849914e-004 -1.58849914e-004 -1.58849914e-004
      -1.46619757e-004 -1.46619757e-004 -1.46619757e-004
      -8.45322720e-005 -8.45322720e-005 -8.45322720e-005 2.75479688e-005
      2.75479688e-005 2.75479688e-005 -5.86750575e-005 -5.86750575e-005
      -5.86750575e-005 -1.23157297e-004 -1.23157297e-004
      -1.23157297e-004 2.69751617e-004 2.69751617e-004 2.69751617e-004
      4.12120658e-004 4.12120658e-004 4.12120658e-004 -1.76064787e-004
      -1.76064787e-004 -1.76064787e-004 -7.45045036e-005
      -7.45045036e-005 -7.45045036e-005 1.51052673e-005 1.51052673e-005
      1.51052673e-005 7.94394418e-006 7.94394418e-006 7.94394418e-006
      -4.55307145e-006 -4.55307145e-006 -4.55307145e-006 1.92554171e-006
      1.92554171e-006 1.92554171e-006 -6.73146769e-006 -6.73146769e-006
      -6.73146769e-006 -1.39073260e-008 -1.39073260e-008
      -1.39073260e-008 -2.97762881e-006 -2.97762881e-006
      -2.97762881e-006 -1.54210484e-005 -1.54210484e-005
      -1.54210484e-005 -6.38911661e-005 -6.38911661e-005
      -6.38911661e-005 -1.05799903e-004 -1.05799903e-004
      -1.05799903e-004 -1.81260883e-004 -1.81260883e-004
      -1.81260883e-004 6.79871027e-006 6.79871027e-006 6.79871027e-006
      -7.73528009e-005 -7.73528009e-005 -7.73528009e-005
      -1.96415218e-004 -1.96415218e-004 -1.96415218e-004
      -1.93436226e-005 -1.93436226e-005 -1.93436226e-005
      -3.55584780e-004 -3.55584780e-004 -3.55584780e-004
      -4.14944574e-004 -4.14944574e-004 -4.14944574e-004 1.99056565e-004
      1.99056565e-004 1.99056565e-004 1.61441985e-005 1.61441985e-005
      1.61441985e-005 -9.12098112e-005 -9.12098112e-005 -9.12098112e-005
      1.03304643e-004 1.03304643e-004 1.03304643e-004 6.80621088e-005
      6.80621088e-005 6.80621088e-005 3.05878257e-006 3.05878257e-006
      3.05878257e-006 1.51074732e-006 1.51074732e-006 1.51074732e-006
      1.96470432e-006 1.96470432e-006 1.96470432e-006 3.08692233e-006
      3.08692233e-006 3.08692233e-006 -3.67788971e-006 -3.67788971e-006
      -3.67788971e-006 -1.30275643e-004 -1.30275643e-004
      -1.30275643e-004 -1.50050153e-004 -1.50050153e-004
      -1.50050153e-004 -1.76414906e-004 -1.76414906e-004
      -1.76414906e-004 -1.46030710e-004 -1.46030710e-004
      -1.46030710e-004 2.70523102e-004 2.70523102e-004 2.70523102e-004
      2.43790400e-005 2.43790400e-005 2.43790400e-005 -1.53085693e-005
      -1.53085693e-005 -1.53085693e-005 1.55574686e-004 1.55574686e-004
      1.55574686e-004 -1.21470992e-004 -1.21470992e-004 -1.21470992e-004
      -4.10170032e-005 -4.10170032e-005 -4.10170032e-005
      -6.54416363e-005 -6.54416363e-005 -6.54416363e-005 2.33787330e-004
      2.33787330e-004 2.33787330e-004 -3.23903150e-005 -3.23903150e-005
      -3.23903150e-005 1.04605584e-004 1.04605584e-004 1.04605584e-004
      7.57261078e-005 7.57261078e-005 7.57261078e-005 1.28753254e-006
      1.28753254e-006 1.28753254e-006 1.05381378e-006 1.05381378e-006
      1.05381378e-006 -1.13084127e-006 -1.13084127e-006 -1.13084127e-006
      -1.65992078e-005 -1.65992078e-005 -1.65992078e-005
      -3.29952345e-005 -3.29952345e-005 -3.29952345e-005
      -1.20409524e-004 -1.20409524e-004 -1.20409524e-004
      -1.36770410e-004 -1.36770410e-004 -1.36770410e-004
      -1.46641047e-004 -1.46641047e-004 -1.46641047e-004
      -1.95647754e-005 -1.95647754e-005 -1.95647754e-005 5.29662539e-005
      5.29662539e-005 5.29662539e-005 7.57108792e-005 7.57108792e-005
      7.57108792e-005 1.76249960e-004 1.76249960e-004 1.76249960e-004
      2.85826012e-004 2.85826012e-004 2.85826012e-004 -2.16247223e-004
      -2.16247223e-004 -2.16247223e-004 1.48852196e-004 1.48852196e-004
      1.48852196e-004 2.90505443e-004 2.90505443e-004 2.90505443e-004
      1.31757450e-004 1.31757450e-004 1.31757450e-004 -1.25499588e-004
      -1.25499588e-004 -1.25499588e-004 -3.14049407e-006
      -3.14049407e-006 -3.14049407e-006 6.17074766e-005 6.17074766e-005
      6.17074766e-005 3.33176331e-007 3.33176331e-007 3.33176331e-007
      1.15292846e-006 1.15292846e-006 1.15292846e-006 5.63686262e-006
      5.63686262e-006 5.63686262e-006 4.51798223e-006 4.51798223e-006
      4.51798223e-006 -2.14678039e-005 -2.14678039e-005 -2.14678039e-005
      -1.16038886e-004 -1.16038886e-004 -1.16038886e-004
      -6.47564448e-005 -6.47564448e-005 -6.47564448e-005
      -4.56844209e-005 -4.56844209e-005 -4.56844209e-005 1.17598989e-004
      1.17598989e-004 1.17598989e-004 -1.59943564e-004 -1.59943564e-004
      -1.59943564e-004 -6.85370542e-005 -6.85370542e-005
      -6.85370542e-005 -1.91603234e-004 -1.91603234e-004
      -1.91603234e-004 1.01075304e-004 1.01075304e-004 1.01075304e-004
      -3.48414847e-004 -3.48414847e-004 -3.48414847e-004
      -3.73672054e-004 -3.73672054e-004 -3.73672054e-004 2.92278764e-006
      2.92278764e-006 2.92278764e-006 -2.07244186e-004 -2.07244186e-004
      -2.07244186e-004 4.18731652e-005 4.18731652e-005 4.18731652e-005
      -5.03152187e-005 -5.03152187e-005 -5.03152187e-005 9.25910444e-006
      9.25910444e-006 9.25910444e-006 4.85140617e-006 4.85140617e-006
      4.85140617e-006 -6.44902741e-007 -6.44902741e-007 -6.44902741e-007
      7.46145702e-007 7.46145702e-007 7.46145702e-007 -9.23913285e-006
      -9.23913285e-006 -9.23913285e-006 -6.48347213e-006
      -6.48347213e-006 -6.48347213e-006 -2.67778923e-005
      -2.67778923e-005 -2.67778923e-005 7.17999428e-005 7.17999428e-005
      7.17999428e-005 1.82760559e-004 1.82760559e-004 1.82760559e-004
      2.20683054e-004 2.20683054e-004 2.20683054e-004 3.17950908e-004
      3.17950908e-004 3.17950908e-004 4.47093829e-004 4.47093829e-004
      4.47093829e-004 5.13806299e-004 5.13806299e-004 5.13806299e-004
      1.74310073e-004 1.74310073e-004 1.74310073e-004 2.24675416e-004
      2.24675416e-004 2.24675416e-004 3.88827553e-004 3.88827553e-004
      3.88827553e-004 8.30682111e-005 8.30682111e-005 8.30682111e-005
      -9.69526445e-006 -9.69526445e-006 -9.69526445e-006 8.29458222e-005
      8.29458222e-005 8.29458222e-005 2.10636150e-004 2.10636150e-004
      2.10636150e-004 1.76398771e-005 1.76398771e-005 1.76398771e-005
      -4.70352779e-006 -4.70352779e-006 -4.70352779e-006 4.36177788e-006
      4.36177788e-006 4.36177788e-006 1.26184323e-005 1.26184323e-005
      1.26184323e-005 -2.46385594e-006 -2.46385594e-006 -2.46385594e-006
      -6.90531533e-006 -6.90531533e-006 -6.90531533e-006 6.90212255e-005
      6.90212255e-005 6.90212255e-005 4.54632071e-004 4.54632071e-004
      4.54632071e-004 3.67120432e-004 3.67120432e-004 3.67120432e-004
      4.41875454e-004 4.41875454e-004 4.41875454e-004 3.59760277e-004
      3.59760277e-004 3.59760277e-004 5.33919607e-004 5.33919607e-004
      5.33919607e-004 2.83090194e-004 2.83090194e-004 2.83090194e-004
      2.87111732e-004 2.87111732e-004 2.87111732e-004 3.85621330e-004
      3.85621330e-004 3.85621330e-004 4.51484753e-004 4.51484753e-004
      4.51484753e-004 2.98212952e-004 2.98212952e-004 2.98212952e-004
      2.99848412e-004 2.99848412e-004 2.99848412e-004 3.33761971e-004
      3.33761971e-004 3.33761971e-004 3.77483957e-004 3.77483957e-004
      3.77483957e-004 1.56750422e-004 1.56750422e-004 1.56750422e-004
      -2.84205107e-005 -2.84205107e-005 -2.84205107e-005
      -2.14490933e-006 -2.14490933e-006 -2.14490933e-006
      -1.19347860e-005 -1.19347860e-005 -1.19347860e-005 6.65166453e-007
      6.65166453e-007 6.65166453e-007 5.76176717e-006 5.76176717e-006
      5.76176717e-006 1.17682081e-004 1.17682081e-004 1.17682081e-004
      3.86653497e-004 3.86653497e-004 3.86653497e-004 1.76614456e-004
      1.76614456e-004 1.76614456e-004 3.74869182e-004 3.74869182e-004
      3.74869182e-004 4.05288069e-004 4.05288069e-004 4.05288069e-004
      1.45110491e-004 1.45110491e-004 1.45110491e-004 -2.26325312e-004
      -2.26325312e-004 -2.26325312e-004 -3.29607166e-004
      -3.29607166e-004 -3.29607166e-004 3.38924910e-005 3.38924910e-005
      3.38924910e-005 1.06626969e-004 1.06626969e-004 1.06626969e-004
      3.36997582e-005 3.36997582e-005 3.36997582e-005 3.43479187e-004
      3.43479187e-004 3.43479187e-004 3.80346464e-004 3.80346464e-004
      3.80346464e-004 3.01520107e-004 3.01520107e-004 3.01520107e-004
      1.99134156e-004 1.99134156e-004 1.99134156e-004 -9.18518053e-005
      -9.18518053e-005 -9.18518053e-005 -9.58547935e-006
      -9.58547935e-006 -9.58547935e-006 1.56526803e-005 1.56526803e-005
      1.56526803e-005 1.30434091e-005 1.30434091e-005 1.30434091e-005
      7.12338442e-006 7.12338442e-006 7.12338442e-006 1.24046783e-004
      1.24046783e-004 1.24046783e-004 4.06228937e-004 4.06228937e-004
      4.06228937e-004 -1.42164994e-004 -1.42164994e-004 -1.42164994e-004
      -3.54240074e-005 -3.54240074e-005 -3.54240074e-005 2.80723529e-004
      2.80723529e-004 2.80723529e-004 -1.42252698e-004 -1.42252698e-004
      -1.42252698e-004 -1.02952166e-004 -1.02952166e-004
      -1.02952166e-004 -9.32481547e-004 -9.32481547e-004
      -9.32481547e-004 -9.98235337e-005 -9.98235337e-005
      -9.98235337e-005 2.31217622e-004 2.31217622e-004 2.31217622e-004
      2.87195347e-004 2.87195347e-004 2.87195347e-004 2.02288589e-004
      2.02288589e-004 2.02288589e-004 3.63066240e-004 3.63066240e-004
      3.63066240e-004 5.03121759e-004 5.03121759e-004 5.03121759e-004
      3.92720191e-004 3.92720191e-004 3.92720191e-004 -9.01986859e-005
      -9.01986859e-005 -9.01986859e-005 -1.41409801e-005
      -1.41409801e-005 -1.41409801e-005 -4.48848965e-007
      -4.48848965e-007 -4.48848965e-007 9.48979675e-007 9.48979675e-007
      9.48979675e-007 -1.78332466e-005 -1.78332466e-005 -1.78332466e-005
      2.36054257e-005 2.36054257e-005 2.36054257e-005 2.10489801e-004
      2.10489801e-004 2.10489801e-004 -1.40992386e-004 -1.40992386e-004
      -1.40992386e-004 9.37898949e-005 9.37898949e-005 9.37898949e-005
      -3.97705408e-005 -3.97705408e-005 -3.97705408e-005 7.41803087e-005
      7.41803087e-005 7.41803087e-005 -6.51417358e-004 -6.51417358e-004
      -6.51417358e-004 -8.03266186e-004 -8.03266186e-004
      -8.03266186e-004 3.39814462e-004 3.39814462e-004 3.39814462e-004
      -3.30787661e-005 -3.30787661e-005 -3.30787661e-005
      -3.15705489e-004 -3.15705489e-004 -3.15705489e-004
      -9.66683510e-005 -9.66683510e-005 -9.66683510e-005 1.15518393e-004
      1.15518393e-004 1.15518393e-004 1.96655747e-004 1.96655747e-004
      1.96655747e-004 -8.01513161e-005 -8.01513161e-005 -8.01513161e-005
      -2.94730067e-004 -2.94730067e-004 -2.94730067e-004
      -2.47013522e-005 -2.47013522e-005 -2.47013522e-005 5.19231025e-006
      5.19231025e-006 5.19231025e-006 -4.37628216e-007 -4.37628216e-007
      -4.37628216e-007 -4.19471980e-005 -4.19471980e-005
      -4.19471980e-005 -4.32156885e-005 -4.32156885e-005
      -4.32156885e-005 -1.63375254e-004 -1.63375254e-004
      -1.63375254e-004 1.13350354e-004 1.13350354e-004 1.13350354e-004
      7.84167132e-005 7.84167132e-005 7.84167132e-005 -2.79908796e-004
      -2.79908796e-004 -2.79908796e-004 1.85783792e-004 1.85783792e-004
      1.85783792e-004 -6.19964325e-004 -6.19964325e-004 -6.19964325e-004
      -2.62949849e-004 -2.62949849e-004 -2.62949849e-004
      -1.86228826e-005 -1.86228826e-005 -1.86228826e-005
      -4.75829438e-005 -4.75829438e-005 -4.75829438e-005
      -1.51991335e-004 -1.51991335e-004 -1.51991335e-004
      -1.89452810e-004 -1.89452810e-004 -1.89452810e-004 8.21852955e-005
      8.21852955e-005 8.21852955e-005 -7.88528414e-005 -7.88528414e-005
      -7.88528414e-005 -1.97923015e-004 -1.97923015e-004
      -1.97923015e-004 -2.06992961e-004 -2.06992961e-004
      -2.06992961e-004 -3.15901489e-005 -3.15901489e-005
      -3.15901489e-005 -2.70551827e-005 -2.70551827e-005
      -2.70551827e-005 3.11352196e-005 3.11352196e-005 3.11352196e-005
      -1.31455126e-005 -1.31455126e-005 -1.31455126e-005
      -1.53453482e-004 -1.53453482e-004 -1.53453482e-004
      -1.06846855e-004 -1.06846855e-004 -1.06846855e-004 2.29738245e-004
      2.29738245e-004 2.29738245e-004 9.62994477e-007 9.62994477e-007
      9.62994477e-007 -2.91431410e-004 -2.91431410e-004 -2.91431410e-004
      3.38973943e-004 3.38973943e-004 3.38973943e-004 -6.28598791e-004
      -6.28598791e-004 -6.28598791e-004 -5.77185594e-004
      -5.77185594e-004 -5.77185594e-004 -3.27727757e-004
      -3.27727757e-004 -3.27727757e-004 -8.04628944e-005
      -8.04628944e-005 -8.04628944e-005 -1.95654269e-004
      -1.95654269e-004 -1.95654269e-004 2.82989204e-004 2.82989204e-004
      2.82989204e-004 -2.76270002e-005 -2.76270002e-005 -2.76270002e-005
      -1.12975307e-004 -1.12975307e-004 -1.12975307e-004
      -5.72934514e-005 -5.72934514e-005 -5.72934514e-005
      -3.86158572e-005 -3.86158572e-005 -3.86158572e-005
      -7.77028345e-006 -7.77028345e-006 -7.77028345e-006
      -2.76586957e-006 -2.76586957e-006 -2.76586957e-006
      -7.96542463e-006 -7.96542463e-006 -7.96542463e-006 4.06190884e-006
      4.06190884e-006 4.06190884e-006 -1.24758852e-004 -1.24758852e-004
      -1.24758852e-004 -1.19946926e-004 -1.19946926e-004
      -1.19946926e-004 1.43446450e-004 1.43446450e-004 1.43446450e-004
      -2.59969529e-004 -2.59969529e-004 -2.59969529e-004 1.02397709e-004
      1.02397709e-004 1.02397709e-004 8.50822471e-005 8.50822471e-005
      8.50822471e-005 1.40368764e-004 1.40368764e-004 1.40368764e-004
      -2.79124331e-004 -2.79124331e-004 -2.79124331e-004 1.23170495e-004
      1.23170495e-004 1.23170495e-004 -6.28827402e-005 -6.28827402e-005
      -6.28827402e-005 -3.94555100e-004 -3.94555100e-004
      -3.94555100e-004 -3.50298244e-004 -3.50298244e-004
      -3.50298244e-004 -4.80142742e-004 -4.80142742e-004
      -4.80142742e-004 6.74486946e-005 6.74486946e-005 6.74486946e-005
      3.96545111e-005 3.96545111e-005 3.96545111e-005 -3.09249231e-006
      -3.09249231e-006 -3.09249231e-006 -2.73086171e-005
      -2.73086171e-005 -2.73086171e-005 9.15716828e-006 9.15716828e-006
      9.15716828e-006 -1.97305399e-005 -1.97305399e-005 -1.97305399e-005
      -3.72358750e-006 -3.72358750e-006 -3.72358750e-006
      -3.84560553e-005 -3.84560553e-005 -3.84560553e-005 1.27294479e-004
      1.27294479e-004 1.27294479e-004 1.71340158e-004 1.71340158e-004
      1.71340158e-004 -2.34430772e-004 -2.34430772e-004 -2.34430772e-004
      -8.40987341e-005 -8.40987341e-005 -8.40987341e-005
      -1.30620858e-004 -1.30620858e-004 -1.30620858e-004
      -1.87715530e-004 -1.87715530e-004 -1.87715530e-004 4.75593144e-004
      4.75593144e-004 4.75593144e-004 9.30281385e-005 9.30281385e-005
      9.30281385e-005 -8.85542249e-004 -8.85542249e-004 -8.85542249e-004
      -2.23489245e-004 -2.23489245e-004 -2.23489245e-004 9.78836470e-005
      9.78836470e-005 9.78836470e-005 3.22548949e-005 3.22548949e-005
      3.22548949e-005 -1.17469943e-004 -1.17469943e-004 -1.17469943e-004
      -1.42763820e-005 -1.42763820e-005 -1.42763820e-005
      -5.11597591e-006 -5.11597591e-006 -5.11597591e-006 7.71940620e-007
      7.71940620e-007 7.71940620e-007 -3.38152495e-006 -3.38152495e-006
      -3.38152495e-006 5.19851164e-006 5.19851164e-006 5.19851164e-006
      -5.15440552e-005 -5.15440552e-005 -5.15440552e-005
      -1.84725417e-004 -1.84725417e-004 -1.84725417e-004 6.49224385e-005
      6.49224385e-005 6.49224385e-005 -6.77185817e-005 -6.77185817e-005
      -6.77185817e-005 -2.45369854e-004 -2.45369854e-004
      -2.45369854e-004 -4.03151753e-005 -4.03151753e-005
      -4.03151753e-005 3.17034952e-004 3.17034952e-004 3.17034952e-004
      5.69042983e-004 5.69042983e-004 5.69042983e-004 6.75026095e-004
      6.75026095e-004 6.75026095e-004 1.18541371e-004 1.18541371e-004
      1.18541371e-004 -4.08371096e-004 -4.08371096e-004 -4.08371096e-004
      -1.08098960e-004 -1.08098960e-004 -1.08098960e-004 1.32033922e-004
      1.32033922e-004 1.32033922e-004 -7.77762980e-005 -7.77762980e-005
      -7.77762980e-005 -1.02993639e-004 -1.02993639e-004
      -1.02993639e-004 -1.36315002e-005 -1.36315002e-005
      -1.36315002e-005 -4.65569838e-006 -4.65569838e-006
      -4.65569838e-006 -2.28397039e-006 -2.28397039e-006
      -2.28397039e-006 -6.51892697e-006 -6.51892697e-006
      -6.51892697e-006 1.95597586e-005 1.95597586e-005 1.95597586e-005
      -2.13663734e-005 -2.13663734e-005 -2.13663734e-005
      -9.29378657e-005 -9.29378657e-005 -9.29378657e-005
      -8.05555392e-005 -8.05555392e-005 -8.05555392e-005
      -9.13543845e-005 -9.13543845e-005 -9.13543845e-005
      -8.48507261e-005 -8.48507261e-005 -8.48507261e-005
      -9.68377717e-005 -9.68377717e-005 -9.68377717e-005 1.06445215e-004
      1.06445215e-004 1.06445215e-004 2.57542706e-004 2.57542706e-004
      2.57542706e-004 2.50556710e-004 2.50556710e-004 2.50556710e-004
      5.27290322e-005 5.27290322e-005 5.27290322e-005 -4.77654685e-004
      -4.77654685e-004 -4.77654685e-004 -6.45250315e-004
      -6.45250315e-004 -6.45250315e-004 -3.21533735e-004
      -3.21533735e-004 -3.21533735e-004 2.36737321e-007 2.36737321e-007
      2.36737321e-007 -3.12586453e-005 -3.12586453e-005 -3.12586453e-005
      -4.67366362e-006 -4.67366362e-006 -4.67366362e-006
      -2.60633760e-006 -2.60633760e-006 -2.60633760e-006
      -5.34016124e-007 -5.34016124e-007 -5.34016124e-007
      -7.82976656e-007 -7.82976656e-007 -7.82976656e-007 2.26885277e-006
      2.26885277e-006 2.26885277e-006 -7.69759572e-006 -7.69759572e-006
      -7.69759572e-006 -1.15343764e-005 -1.15343764e-005
      -1.15343764e-005 -5.41303848e-007 -5.41303848e-007
      -5.41303848e-007 1.38411669e-005 1.38411669e-005 1.38411669e-005
      1.88255501e-006 1.88255501e-006 1.88255501e-006 -2.63587958e-006
      -2.63587958e-006 -2.63587958e-006 -5.22199934e-006
      -5.22199934e-006 -5.22199934e-006 3.86082229e-006 3.86082229e-006
      3.86082229e-006 -1.01088644e-005 -1.01088644e-005 -1.01088644e-005
      -2.58461597e-007 -2.58461597e-007 -2.58461597e-007
      -3.99701712e-005 -3.99701712e-005 -3.99701712e-005
      -3.32871685e-004 -3.32871685e-004 -3.32871685e-004
      -2.07809557e-004 -2.07809557e-004 -2.07809557e-004 7.66363610e-006
      7.66363610e-006 7.66363610e-006 -2.13606441e-007 -2.13606441e-007
      -2.13606441e-007 -1.93642245e-006 -1.93642245e-006
      -1.93642245e-006 0. 0. 0. -4.12665059e-007 -4.12665059e-007
      -4.12665059e-007 5.66466224e-006 5.66466224e-006 5.66466224e-006
      2.55137138e-007 2.55137138e-007 2.55137138e-007 1.45584445e-005
      1.45584445e-005 1.45584445e-005 4.49203162e-006 4.49203162e-006
      4.49203162e-006 -4.59666944e-006 -4.59666944e-006 -4.59666944e-006
      -1.32613536e-006 -1.32613536e-006 -1.32613536e-006
      -1.04729070e-005 -1.04729070e-005 -1.04729070e-005 2.65715516e-005
      2.65715516e-005 2.65715516e-005 -6.04544766e-007 -6.04544766e-007
      -6.04544766e-007 1.41845185e-005 1.41845185e-005 1.41845185e-005
      1.26979912e-005 1.26979912e-005 1.26979912e-005 8.86521957e-006
      8.86521957e-006 8.86521957e-006 2.25934832e-006 2.25934832e-006
      2.25934832e-006 6.53084953e-006 6.53084953e-006 6.53084953e-006
      8.65047878e-006 8.65047878e-006 8.65047878e-006 -7.88595389e-006
      -7.88595389e-006 -7.88595389e-006 -3.05861846e-007
      -3.05861846e-007 -3.05861846e-007 -1.06803220e-007
      -1.06803220e-007 -1.06803220e-007 0. 0. 0. -4.12665059e-007
      -4.12665059e-007 -4.12665059e-007</_>
    <_>
      -1.18632295e-006 -1.18632295e-006 -1.18632295e-006
      -7.88227226e-006 -7.88227226e-006 -7.88227226e-006
      -1.26377404e-006 -1.26377404e-006 -1.26377404e-006
      -7.84878694e-007 -7.84878694e-007 -7.84878694e-007
      -2.39316819e-006 -2.39316819e-006 -2.39316819e-006 4.86535100e-007
      4.86535100e-007 4.86535100e-007 -1.52655423e-006 -1.52655423e-006
      -1.52655423e-006 -6.24763288e-007 -6.24763288e-007
      -6.24763288e-007 5.75306058e-006 5.75306058e-006 5.75306058e-006
      -2.25340250e-006 -2.25340250e-006 -2.25340250e-006
      -2.08853794e-006 -2.08853794e-006 -2.08853794e-006 2.65870926e-006
      2.65870926e-006 2.65870926e-006 4.90880711e-006 4.90880711e-006
      4.90880711e-006 -1.29148032e-006 -1.29148032e-006 -1.29148032e-006
      -4.92701190e-007 -4.92701190e-007 -4.92701190e-007 3.44756495e-006
      3.44756495e-006 3.44756495e-006 1.41427449e-006 1.41427449e-006
      1.41427449e-006 8.11347377e-007 8.11347377e-007 8.11347377e-007
      -4.33463242e-007 -4.33463242e-007 -4.33463242e-007 2.07275411e-006
      2.07275411e-006 2.07275411e-006 -2.61107130e-006 -2.61107130e-006
      -2.61107130e-006 2.25805752e-006 2.25805752e-006 2.25805752e-006
      -1.07794745e-006 -1.07794745e-006 -1.07794745e-006 5.35521224e-007
      5.35521224e-007 5.35521224e-007 2.29712850e-006 2.29712850e-006
      2.29712850e-006 -4.40425947e-006 -4.40425947e-006 -4.40425947e-006
      -7.13234954e-007 -7.13234954e-007 -7.13234954e-007 1.53318376e-006
      1.53318376e-006 1.53318376e-006 -6.08398886e-006 -6.08398886e-006
      -6.08398886e-006 -3.54105305e-006 -3.54105305e-006
      -3.54105305e-006 6.12331496e-006 6.12331496e-006 6.12331496e-006
      -1.61174697e-007 -1.61174697e-007 -1.61174697e-007 4.10114808e-006
      4.10114808e-006 4.10114808e-006 1.02182084e-005 1.02182084e-005
      1.02182084e-005 -6.95986409e-006 -6.95986409e-006 -6.95986409e-006
      -3.36658957e-007 -3.36658957e-007 -3.36658957e-007 1.83758959e-006
      1.83758959e-006 1.83758959e-006 1.46102855e-006 1.46102855e-006
      1.46102855e-006 6.86290775e-007 6.86290775e-007 6.86290775e-007
      -2.50379401e-007 -2.50379401e-007 -2.50379401e-007
      -2.17491831e-007 -2.17491831e-007 -2.17491831e-007
      -2.14318356e-006 -2.14318356e-006 -2.14318356e-006 4.21586719e-007
      4.21586719e-007 4.21586719e-007 -1.05851241e-005 -1.05851241e-005
      -1.05851241e-005 -5.58723696e-006 -5.58723696e-006
      -5.58723696e-006 8.51222467e-006 8.51222467e-006 8.51222467e-006
      -5.48325352e-006 -5.48325352e-006 -5.48325352e-006
      -5.85052294e-006 -5.85052294e-006 -5.85052294e-006
      -1.29196735e-004 -1.29196735e-004 -1.29196735e-004
      -2.60498520e-004 -2.60498520e-004 -2.60498520e-004
      -1.65471356e-004 -1.65471356e-004 -1.65471356e-004
      -1.97145637e-004 -1.97145637e-004 -1.97145637e-004
      -2.17537017e-004 -2.17537017e-004 -2.17537017e-004
      -1.04253522e-004 -1.04253522e-004 -1.04253522e-004
      -3.25607543e-005 -3.25607543e-005 -3.25607543e-005
      -1.31917850e-005 -1.31917850e-005 -1.31917850e-005 7.74376349e-006
      7.74376349e-006 7.74376349e-006 -3.66113113e-007 -3.66113113e-007
      -3.66113113e-007 2.15694604e-006 2.15694604e-006 2.15694604e-006
      7.11852977e-007 7.11852977e-007 7.11852977e-007 -4.78942411e-006
      -4.78942411e-006 -4.78942411e-006 2.22768904e-006 2.22768904e-006
      2.22768904e-006 -3.34083393e-006 -3.34083393e-006 -3.34083393e-006
      -4.81333063e-006 -4.81333063e-006 -4.81333063e-006
      -2.52490754e-005 -2.52490754e-005 -2.52490754e-005
      -8.69309224e-005 -8.69309224e-005 -8.69309224e-005
      -1.14460410e-004 -1.14460410e-004 -1.14460410e-004
      -1.74328132e-004 -1.74328132e-004 -1.74328132e-004
      -4.09429660e-004 -4.09429660e-004 -4.09429660e-004
      -4.08595253e-004 -4.08595253e-004 -4.08595253e-004 1.77050737e-004
      1.77050737e-004 1.77050737e-004 4.54575129e-005 4.54575129e-005
      4.54575129e-005 -1.31506589e-004 -1.31506589e-004 -1.31506589e-004
      -1.11552690e-005 -1.11552690e-005 -1.11552690e-005 2.22172093e-004
      2.22172093e-004 2.22172093e-004 1.25410865e-004 1.25410865e-004
      1.25410865e-004 2.51880356e-005 2.51880356e-005 2.51880356e-005
      2.20523380e-005 2.20523380e-005 2.20523380e-005 -2.04643662e-008
      -2.04643662e-008 -2.04643662e-008 9.07047877e-007 9.07047877e-007
      9.07047877e-007 -6.20813171e-006 -6.20813171e-006 -6.20813171e-006
      -3.13593182e-006 -3.13593182e-006 -3.13593182e-006
      -2.00938317e-007 -2.00938317e-007 -2.00938317e-007
      -2.41192720e-005 -2.41192720e-005 -2.41192720e-005
      -1.73727341e-004 -1.73727341e-004 -1.73727341e-004
      -2.25131982e-004 -2.25131982e-004 -2.25131982e-004
      -2.18688278e-004 -2.18688278e-004 -2.18688278e-004
      -2.98301806e-004 -2.98301806e-004 -2.98301806e-004
      -2.55457941e-004 -2.55457941e-004 -2.55457941e-004
      -1.08076776e-004 -1.08076776e-004 -1.08076776e-004 1.11676900e-005
      1.11676900e-005 1.11676900e-005 -1.64027864e-004 -1.64027864e-004
      -1.64027864e-004 4.31679437e-005 4.31679437e-005 4.31679437e-005
      -2.40513647e-004 -2.40513647e-004 -2.40513647e-004 1.35278096e-004
      1.35278096e-004 1.35278096e-004 1.47394210e-004 1.47394210e-004
      1.47394210e-004 -1.21265730e-004 -1.21265730e-004 -1.21265730e-004
      1.60013842e-005 1.60013842e-005 1.60013842e-005 1.02357740e-006
      1.02357740e-006 1.02357740e-006 -1.41249495e-006 -1.41249495e-006
      -1.41249495e-006 -3.63421941e-006 -3.63421941e-006
      -3.63421941e-006 -6.70070858e-006 -6.70070858e-006
      -6.70070858e-006 -8.19228171e-006 -8.19228171e-006
      -8.19228171e-006 -1.19940605e-005 -1.19940605e-005
      -1.19940605e-005 -1.23238249e-004 -1.23238249e-004
      -1.23238249e-004 -2.24090138e-004 -2.24090138e-004
      -2.24090138e-004 -2.05711258e-004 -2.05711258e-004
      -2.05711258e-004 -9.49286768e-005 -9.49286768e-005
      -9.49286768e-005 4.81157003e-005 4.81157003e-005 4.81157003e-005
      -6.66815176e-005 -6.66815176e-005 -6.66815176e-005
      -1.28995207e-005 -1.28995207e-005 -1.28995207e-005
      -1.20716777e-005 -1.20716777e-005 -1.20716777e-005 1.92894986e-005
      1.92894986e-005 1.92894986e-005 -4.98897025e-005 -4.98897025e-005
      -4.98897025e-005 7.87732424e-005 7.87732424e-005 7.87732424e-005
      1.20091070e-004 1.20091070e-004 1.20091070e-004 -1.64209705e-004
      -1.64209705e-004 -1.64209705e-004 -1.09816019e-005
      -1.09816019e-005 -1.09816019e-005 6.34034507e-007 6.34034507e-007
      6.34034507e-007 3.64899006e-006 3.64899006e-006 3.64899006e-006
      6.06448680e-007 6.06448680e-007 6.06448680e-007 1.88570800e-006
      1.88570800e-006 1.88570800e-006 -3.24269058e-006 -3.24269058e-006
      -3.24269058e-006 -7.76873821e-006 -7.76873821e-006
      -7.76873821e-006 -1.77602433e-005 -1.77602433e-005
      -1.77602433e-005 -1.48123130e-004 -1.48123130e-004
      -1.48123130e-004 -7.63986827e-005 -7.63986827e-005
      -7.63986827e-005 3.62485407e-005 3.62485407e-005 3.62485407e-005
      -9.39534366e-005 -9.39534366e-005 -9.39534366e-005
      -1.86122503e-004 -1.86122503e-004 -1.86122503e-004 2.45935837e-004
      2.45935837e-004 2.45935837e-004 6.73289978e-005 6.73289978e-005
      6.73289978e-005 -2.92881577e-005 -2.92881577e-005 -2.92881577e-005
      2.08628189e-004 2.08628189e-004 2.08628189e-004 -2.79814067e-005
      -2.79814067e-005 -2.79814067e-005 1.50000269e-004 1.50000269e-004
      1.50000269e-004 6.44757747e-005 6.44757747e-005 6.44757747e-005
      1.09573866e-005 1.09573866e-005 1.09573866e-005 1.88666286e-006
      1.88666286e-006 1.88666286e-006 1.25380984e-006 1.25380984e-006
      1.25380984e-006 -3.58680177e-006 -3.58680177e-006 -3.58680177e-006
      -1.81688392e-007 -1.81688392e-007 -1.81688392e-007
      -2.08263828e-006 -2.08263828e-006 -2.08263828e-006 1.15009370e-005
      1.15009370e-005 1.15009370e-005 1.09203575e-004 1.09203575e-004
      1.09203575e-004 1.10964836e-004 1.10964836e-004 1.10964836e-004
      6.86948115e-005 6.86948115e-005 6.86948115e-005 8.29668861e-005
      8.29668861e-005 8.29668861e-005 3.72282302e-005 3.72282302e-005
      3.72282302e-005 1.13667062e-004 1.13667062e-004 1.13667062e-004
      -5.51061603e-005 -5.51061603e-005 -5.51061603e-005
      -1.22429177e-004 -1.22429177e-004 -1.22429177e-004 4.99680245e-005
      4.99680245e-005 4.99680245e-005 -5.01473332e-005 -5.01473332e-005
      -5.01473332e-005 -3.01306663e-005 -3.01306663e-005
      -3.01306663e-005 2.96730781e-004 2.96730781e-004 2.96730781e-004
      2.71320721e-004 2.71320721e-004 2.71320721e-004 1.33842777e-005
      1.33842777e-005 1.33842777e-005 5.04881655e-007 5.04881655e-007
      5.04881655e-007 -3.85198831e-007 -3.85198831e-007 -3.85198831e-007
      -4.95945824e-006 -4.95945824e-006 -4.95945824e-006 5.35404797e-006
      5.35404797e-006 5.35404797e-006 -7.82182360e-006 -7.82182360e-006
      -7.82182360e-006 4.59399307e-005 4.59399307e-005 4.59399307e-005
      2.34844221e-004 2.34844221e-004 2.34844221e-004 1.93485306e-004
      1.93485306e-004 1.93485306e-004 1.67026315e-004 1.67026315e-004
      1.67026315e-004 -1.11582012e-004 -1.11582012e-004 -1.11582012e-004
      -6.72343740e-005 -6.72343740e-005 -6.72343740e-005
      -1.84229575e-004 -1.84229575e-004 -1.84229575e-004
      -1.36531191e-004 -1.36531191e-004 -1.36531191e-004
      -2.34310850e-004 -2.34310850e-004 -2.34310850e-004
      -3.69583751e-004 -3.69583751e-004 -3.69583751e-004 1.54351201e-005
      1.54351201e-005 1.54351201e-005 1.52510198e-004 1.52510198e-004
      1.52510198e-004 2.54869170e-004 2.54869170e-004 2.54869170e-004
      2.44828610e-004 2.44828610e-004 2.44828610e-004 5.39459033e-005
      5.39459033e-005 5.39459033e-005 7.17401178e-007 7.17401178e-007
      7.17401178e-007 8.45683871e-007 8.45683871e-007 8.45683871e-007
      -1.08299866e-006 -1.08299866e-006 -1.08299866e-006 7.22584900e-007
      7.22584900e-007 7.22584900e-007 5.82943267e-006 5.82943267e-006
      5.82943267e-006 7.38917588e-005 7.38917588e-005 7.38917588e-005
      1.86614780e-004 1.86614780e-004 1.86614780e-004 1.12242495e-004
      1.12242495e-004 1.12242495e-004 1.16425093e-004 1.16425093e-004
      1.16425093e-004 -2.18320842e-004 -2.18320842e-004 -2.18320842e-004
      -1.05383197e-006 -1.05383197e-006 -1.05383197e-006
      -1.79214665e-004 -1.79214665e-004 -1.79214665e-004
      -6.70460518e-004 -6.70460518e-004 -6.70460518e-004
      -3.67168803e-004 -3.67168803e-004 -3.67168803e-004
      -3.50933871e-004 -3.50933871e-004 -3.50933871e-004
      -2.02518699e-004 -2.02518699e-004 -2.02518699e-004 2.69749667e-004
      2.69749667e-004 2.69749667e-004 1.41286073e-004 1.41286073e-004
      1.41286073e-004 1.03267739e-004 1.03267739e-004 1.03267739e-004
      1.00299440e-004 1.00299440e-004 1.00299440e-004 8.19036700e-007
      8.19036700e-007 8.19036700e-007 9.21252024e-007 9.21252024e-007
      9.21252024e-007 4.00907055e-007 4.00907055e-007 4.00907055e-007
      4.21217464e-006 4.21217464e-006 4.21217464e-006 1.54933105e-006
      1.54933105e-006 1.54933105e-006 1.49714877e-004 1.49714877e-004
      1.49714877e-004 2.25243159e-004 2.25243159e-004 2.25243159e-004
      2.44397845e-004 2.44397845e-004 2.44397845e-004 6.36058976e-005
      6.36058976e-005 6.36058976e-005 3.60766222e-004 3.60766222e-004
      3.60766222e-004 3.12625547e-004 3.12625547e-004 3.12625547e-004
      -6.84982006e-005 -6.84982006e-005 -6.84982006e-005
      -9.20714927e-004 -9.20714927e-004 -9.20714927e-004
      -2.20825081e-004 -2.20825081e-004 -2.20825081e-004 6.75707342e-005
      6.75707342e-005 6.75707342e-005 -3.33169155e-005 -3.33169155e-005
      -3.33169155e-005 1.24039449e-004 1.24039449e-004 1.24039449e-004
      8.12616345e-005 8.12616345e-005 8.12616345e-005 2.39908150e-006
      2.39908150e-006 2.39908150e-006 7.84850490e-005 7.84850490e-005
      7.84850490e-005 1.35199491e-006 1.35199491e-006 1.35199491e-006
      -2.86127738e-006 -2.86127738e-006 -2.86127738e-006 1.41122300e-005
      1.41122300e-005 1.41122300e-005 -2.05658762e-005 -2.05658762e-005
      -2.05658762e-005 -2.74344420e-005 -2.74344420e-005
      -2.74344420e-005 1.47996048e-004 1.47996048e-004 1.47996048e-004
      3.97072261e-004 3.97072261e-004 3.97072261e-004 5.86330018e-004
      5.86330018e-004 5.86330018e-004 4.89489699e-004 4.89489699e-004
      4.89489699e-004 5.21082489e-004 5.21082489e-004 5.21082489e-004
      2.69901240e-004 2.69901240e-004 2.69901240e-004 -5.43095113e-004
      -5.43095113e-004 -5.43095113e-004 -7.68734026e-004
      -7.68734026e-004 -7.68734026e-004 1.61340849e-005 1.61340849e-005
      1.61340849e-005 -6.12106305e-005 -6.12106305e-005 -6.12106305e-005
      -1.98741109e-004 -1.98741109e-004 -1.98741109e-004 5.83492192e-006
      5.83492192e-006 5.83492192e-006 2.07817488e-004 2.07817488e-004
      2.07817488e-004 2.62992216e-005 2.62992216e-005 2.62992216e-005
      -6.57268465e-005 -6.57268465e-005 -6.57268465e-005
      -2.96362850e-006 -2.96362850e-006 -2.96362850e-006 2.50869630e-006
      2.50869630e-006 2.50869630e-006 -1.23490608e-007 -1.23490608e-007
      -1.23490608e-007 -5.18060406e-005 -5.18060406e-005
      -5.18060406e-005 -1.35714727e-004 -1.35714727e-004
      -1.35714727e-004 -3.83492370e-005 -3.83492370e-005
      -3.83492370e-005 1.66778540e-004 1.66778540e-004 1.66778540e-004
      1.72139073e-004 1.72139073e-004 1.72139073e-004 1.34556171e-006
      1.34556171e-006 1.34556171e-006 4.42129589e-004 4.42129589e-004
      4.42129589e-004 4.47732833e-004 4.47732833e-004 4.47732833e-004
      -1.57324219e-004 -1.57324219e-004 -1.57324219e-004 1.22764859e-005
      1.22764859e-005 1.22764859e-005 4.50707157e-005 4.50707157e-005
      4.50707157e-005 -8.93114702e-005 -8.93114702e-005 -8.93114702e-005
      -4.97628498e-005 -4.97628498e-005 -4.97628498e-005
      -1.18086777e-004 -1.18086777e-004 -1.18086777e-004 2.49833218e-004
      2.49833218e-004 2.49833218e-004 3.87473410e-005 3.87473410e-005
      3.87473410e-005 -9.13872500e-005 -9.13872500e-005 -9.13872500e-005
      1.11373583e-006 1.11373583e-006 1.11373583e-006 -9.65330401e-007
      -9.65330401e-007 -9.65330401e-007 -3.08662516e-006
      -3.08662516e-006 -3.08662516e-006 2.25875974e-005 2.25875974e-005
      2.25875974e-005 -1.96990994e-004 -1.96990994e-004 -1.96990994e-004
      -1.74305853e-004 -1.74305853e-004 -1.74305853e-004
      -6.86084968e-005 -6.86084968e-005 -6.86084968e-005 1.11272871e-004
      1.11272871e-004 1.11272871e-004 2.15013890e-004 2.15013890e-004
      2.15013890e-004 1.89789920e-004 1.89789920e-004 1.89789920e-004
      5.79882879e-004 5.79882879e-004 5.79882879e-004 -1.22711708e-005
      -1.22711708e-005 -1.22711708e-005 -7.39589013e-005
      -7.39589013e-005 -7.39589013e-005 -1.80004703e-004
      -1.80004703e-004 -1.80004703e-004 -9.21152314e-005
      -9.21152314e-005 -9.21152314e-005 -1.76755304e-004
      -1.76755304e-004 -1.76755304e-004 -2.29966652e-004
      -2.29966652e-004 -2.29966652e-004 1.90928295e-005 1.90928295e-005
      1.90928295e-005 -8.34015445e-005 -8.34015445e-005 -8.34015445e-005
      -1.23584570e-004 -1.23584570e-004 -1.23584570e-004
      -8.62843194e-007 -8.62843194e-007 -8.62843194e-007
      -1.06890434e-006 -1.06890434e-006 -1.06890434e-006
      -6.32218143e-006 -6.32218143e-006 -6.32218143e-006
      -4.80280323e-006 -4.80280323e-006 -4.80280323e-006
      -1.52481662e-004 -1.52481662e-004 -1.52481662e-004
      -1.89478684e-004 -1.89478684e-004 -1.89478684e-004
      -3.29086120e-004 -3.29086120e-004 -3.29086120e-004 9.90352055e-005
      9.90352055e-005 9.90352055e-005 2.89494856e-005 2.89494856e-005
      2.89494856e-005 1.72112123e-004 1.72112123e-004 1.72112123e-004
      3.65870685e-004 3.65870685e-004 3.65870685e-004 3.17317281e-005
      3.17317281e-005 3.17317281e-005 -7.00771197e-005 -7.00771197e-005
      -7.00771197e-005 9.08704806e-006 9.08704806e-006 9.08704806e-006
      -6.63148166e-005 -6.63148166e-005 -6.63148166e-005
      -9.23113112e-005 -9.23113112e-005 -9.23113112e-005
      -1.18355412e-004 -1.18355412e-004 -1.18355412e-004
      -1.65812104e-004 -1.65812104e-004 -1.65812104e-004
      -2.52296508e-004 -2.52296508e-004 -2.52296508e-004
      -1.17602627e-004 -1.17602627e-004 -1.17602627e-004 4.75069072e-007
      4.75069072e-007 4.75069072e-007 4.94604478e-007 4.94604478e-007
      4.94604478e-007 -3.05101094e-006 -3.05101094e-006 -3.05101094e-006
      4.28518547e-007 4.28518547e-007 4.28518547e-007 -6.84974157e-006
      -6.84974157e-006 -6.84974157e-006 -4.39455107e-005
      -4.39455107e-005 -4.39455107e-005 -3.53835931e-005
      -3.53835931e-005 -3.53835931e-005 8.99384904e-005 8.99384904e-005
      8.99384904e-005 -1.34133574e-004 -1.34133574e-004 -1.34133574e-004
      3.05226626e-004 3.05226626e-004 3.05226626e-004 2.04145806e-004
      2.04145806e-004 2.04145806e-004 -1.03526963e-005 -1.03526963e-005
      -1.03526963e-005 4.40234862e-006 4.40234862e-006 4.40234862e-006
      1.40531003e-004 1.40531003e-004 1.40531003e-004 -1.77679700e-004
      -1.77679700e-004 -1.77679700e-004 -1.64817233e-004
      -1.64817233e-004 -1.64817233e-004 -4.42488414e-007
      -4.42488414e-007 -4.42488414e-007 -1.86125297e-004
      -1.86125297e-004 -1.86125297e-004 -1.77536072e-004
      -1.77536072e-004 -1.77536072e-004 -7.46216483e-006
      -7.46216483e-006 -7.46216483e-006 1.09620851e-006 1.09620851e-006
      1.09620851e-006 2.68987560e-006 2.68987560e-006 2.68987560e-006
      -1.64446851e-006 -1.64446851e-006 -1.64446851e-006
      -4.89602553e-006 -4.89602553e-006 -4.89602553e-006
      -1.17304398e-005 -1.17304398e-005 -1.17304398e-005
      -8.52793601e-005 -8.52793601e-005 -8.52793601e-005 8.39800923e-005
      8.39800923e-005 8.39800923e-005 -1.06491963e-004 -1.06491963e-004
      -1.06491963e-004 7.70199113e-005 7.70199113e-005 7.70199113e-005
      1.77008173e-004 1.77008173e-004 1.77008173e-004 3.34351091e-004
      3.34351091e-004 3.34351091e-004 4.52533510e-004 4.52533510e-004
      4.52533510e-004 2.87701056e-004 2.87701056e-004 2.87701056e-004
      9.74460709e-005 9.74460709e-005 9.74460709e-005 -1.01009880e-006
      -1.01009880e-006 -1.01009880e-006 4.62455973e-005 4.62455973e-005
      4.62455973e-005 -6.23377709e-005 -6.23377709e-005 -6.23377709e-005
      -1.30101165e-004 -1.30101165e-004 -1.30101165e-004
      -2.60035522e-005 -2.60035522e-005 -2.60035522e-005
      -2.78609491e-006 -2.78609491e-006 -2.78609491e-006 0. 0. 0.
      -1.85739668e-006 -1.85739668e-006 -1.85739668e-006 4.63284550e-007
      4.63284550e-007 4.63284550e-007 1.91602285e-005 1.91602285e-005
      1.91602285e-005 -3.53955111e-005 -3.53955111e-005 -3.53955111e-005
      -9.23888147e-005 -9.23888147e-005 -9.23888147e-005 5.63418439e-007
      5.63418439e-007 5.63418439e-007 -2.03707226e-004 -2.03707226e-004
      -2.03707226e-004 -1.95451925e-004 -1.95451925e-004
      -1.95451925e-004 -2.07657198e-004 -2.07657198e-004
      -2.07657198e-004 -1.17742813e-004 -1.17742813e-004
      -1.17742813e-004 2.02593321e-004 2.02593321e-004 2.02593321e-004
      2.09224148e-004 2.09224148e-004 2.09224148e-004 1.49367406e-004
      1.49367406e-004 1.49367406e-004 3.56528799e-005 3.56528799e-005
      3.56528799e-005 1.09433668e-005 1.09433668e-005 1.09433668e-005
      -3.42327403e-005 -3.42327403e-005 -3.42327403e-005 1.82289787e-005
      1.82289787e-005 1.82289787e-005 -2.78609491e-006 -2.78609491e-006
      -2.78609491e-006 0. 0. 0. -9.28698341e-007 -9.28698341e-007
      -9.28698341e-007 -2.78609491e-006 -2.78609491e-006
      -2.78609491e-006 -1.75123273e-006 -1.75123273e-006
      -1.75123273e-006 -1.01300138e-005 -1.01300138e-005
      -1.01300138e-005 -5.59330874e-006 -5.59330874e-006
      -5.59330874e-006 -4.68650214e-005 -4.68650214e-005
      -4.68650214e-005 -4.90663479e-005 -4.90663479e-005
      -4.90663479e-005 -1.02029437e-004 -1.02029437e-004
      -1.02029437e-004 -1.30979359e-004 -1.30979359e-004
      -1.30979359e-004 -1.64309706e-004 -1.64309706e-004
      -1.64309706e-004 -1.42677018e-004 -1.42677018e-004
      -1.42677018e-004 -3.47178611e-005 -3.47178611e-005
      -3.47178611e-005 4.56317539e-005 4.56317539e-005 4.56317539e-005
      7.55322890e-006 7.55322890e-006 7.55322890e-006 8.75328806e-006
      8.75328806e-006 8.75328806e-006 1.31820036e-006 1.31820036e-006
      1.31820036e-006 -8.78701667e-006 -8.78701667e-006 -8.78701667e-006
      -1.05484628e-006 -1.05484628e-006 -1.05484628e-006 0. 0. 0. 0. 0.
      0. -1.85739668e-006 -1.85739668e-006 -1.85739668e-006 0. 0. 0.
      1.51343556e-006 1.51343556e-006 1.51343556e-006 -4.13980160e-006
      -4.13980160e-006 -4.13980160e-006 1.46653947e-005 1.46653947e-005
      1.46653947e-005 -1.05458867e-006 -1.05458867e-006 -1.05458867e-006
      9.08127049e-007 9.08127049e-007 9.08127049e-007 -1.28825172e-006
      -1.28825172e-006 -1.28825172e-006 3.58022726e-006 3.58022726e-006
      3.58022726e-006 7.40777887e-006 7.40777887e-006 7.40777887e-006
      -8.33046215e-007 -8.33046215e-007 -8.33046215e-007 1.46528055e-006
      1.46528055e-006 1.46528055e-006 6.90737068e-007 6.90737068e-007
      6.90737068e-007 1.76733579e-006 1.76733579e-006 1.76733579e-006
      4.10185248e-006 4.10185248e-006 4.10185248e-006 -5.04740456e-006
      -5.04740456e-006 -5.04740456e-006 5.65177652e-006 5.65177652e-006
      5.65177652e-006 -2.85522560e-006 -2.85522560e-006 -2.85522560e-006
      -2.78609491e-006 -2.78609491e-006 -2.78609491e-006
      -9.28698341e-007 -9.28698341e-007 -9.28698341e-007 0. 0. 0. 0. 0.
      0.</_>
    <_>
      5.42105568e-007 5.42105568e-007 5.42105568e-007 -1.23586665e-006
      -1.23586665e-006 -1.23586665e-006 1.35857363e-006 1.35857363e-006
      1.35857363e-006 -1.23456766e-006 -1.23456766e-006 -1.23456766e-006
      7.51824984e-007 7.51824984e-007 7.51824984e-007 1.70723649e-006
      1.70723649e-006 1.70723649e-006 3.31107867e-006 3.31107867e-006
      3.31107867e-006 1.62237245e-006 1.62237245e-006 1.62237245e-006
      1.20937943e-006 1.20937943e-006 1.20937943e-006 3.32919535e-006
      3.32919535e-006 3.32919535e-006 -1.53893529e-006 -1.53893529e-006
      -1.53893529e-006 -1.96067845e-006 -1.96067845e-006
      -1.96067845e-006 2.59736839e-006 2.59736839e-006 2.59736839e-006
      1.57848285e-006 1.57848285e-006 1.57848285e-006 3.41092641e-006
      3.41092641e-006 3.41092641e-006 7.15474755e-007 7.15474755e-007
      7.15474755e-007 -8.08914649e-007 -8.08914649e-007 -8.08914649e-007
      2.02539309e-006 2.02539309e-006 2.02539309e-006 -1.19657113e-006
      -1.19657113e-006 -1.19657113e-006 -1.47935077e-006
      -1.47935077e-006 -1.47935077e-006 -1.77414688e-006
      -1.77414688e-006 -1.77414688e-006 5.09924530e-006 5.09924530e-006
      5.09924530e-006 -1.48052538e-006 -1.48052538e-006 -1.48052538e-006
      -1.94077961e-006 -1.94077961e-006 -1.94077961e-006 3.57058252e-006
      3.57058252e-006 3.57058252e-006 9.13692233e-008 9.13692233e-008
      9.13692233e-008 -7.44441991e-007 -7.44441991e-007 -7.44441991e-007
      1.48374261e-006 1.48374261e-006 1.48374261e-006 -1.46295190e-006
      -1.46295190e-006 -1.46295190e-006 -6.07572611e-006
      -6.07572611e-006 -6.07572611e-006 7.37623668e-006 7.37623668e-006
      7.37623668e-006 -2.93758688e-007 -2.93758688e-007 -2.93758688e-007
      -2.77989557e-006 -2.77989557e-006 -2.77989557e-006 5.39097618e-006
      5.39097618e-006 5.39097618e-006 -6.89771514e-006 -6.89771514e-006
      -6.89771514e-006 4.44632860e-006 4.44632860e-006 4.44632860e-006
      7.10436836e-007 7.10436836e-007 7.10436836e-007 -3.89299794e-006
      -3.89299794e-006 -3.89299794e-006 4.81484392e-007 4.81484392e-007
      4.81484392e-007 -4.95994961e-008 -4.95994961e-008 -4.95994961e-008
      1.11863081e-007 1.11863081e-007 1.11863081e-007 1.56154363e-006
      1.56154363e-006 1.56154363e-006 6.44363354e-008 6.44363354e-008
      6.44363354e-008 -1.90469711e-006 -1.90469711e-006 -1.90469711e-006
      -8.96560834e-007 -8.96560834e-007 -8.96560834e-007 2.31149056e-006
      2.31149056e-006 2.31149056e-006 -1.67337487e-006 -1.67337487e-006
      -1.67337487e-006 -9.90169247e-006 -9.90169247e-006
      -9.90169247e-006 -6.18573722e-006 -6.18573722e-006
      -6.18573722e-006 8.28580505e-006 8.28580505e-006 8.28580505e-006
      1.59041065e-005 1.59041065e-005 1.59041065e-005 2.43081122e-005
      2.43081122e-005 2.43081122e-005 1.43336496e-004 1.43336496e-004
      1.43336496e-004 2.30247424e-005 2.30247424e-005 2.30247424e-005
      1.34334787e-005 1.34334787e-005 1.34334787e-005 -9.34432774e-006
      -9.34432774e-006 -9.34432774e-006 -3.72020918e-006
      -3.72020918e-006 -3.72020918e-006 -1.33384071e-006
      -1.33384071e-006 -1.33384071e-006 -2.57242004e-006
      -2.57242004e-006 -2.57242004e-006 1.08176408e-007 1.08176408e-007
      1.08176408e-007 2.58704205e-007 2.58704205e-007 2.58704205e-007
      2.76716491e-006 2.76716491e-006 2.76716491e-006 -2.90892717e-006
      -2.90892717e-006 -2.90892717e-006 -5.19730634e-007
      -5.19730634e-007 -5.19730634e-007 6.99376756e-007 6.99376756e-007
      6.99376756e-007 -1.22187998e-006 -1.22187998e-006 -1.22187998e-006
      -2.91761644e-005 -2.91761644e-005 -2.91761644e-005
      -1.17807693e-004 -1.17807693e-004 -1.17807693e-004
      -7.34329005e-005 -7.34329005e-005 -7.34329005e-005 1.14952163e-004
      1.14952163e-004 1.14952163e-004 2.71527155e-004 2.71527155e-004
      2.71527155e-004 1.59668431e-004 1.59668431e-004 1.59668431e-004
      5.11743347e-005 5.11743347e-005 5.11743347e-005 8.44993774e-005
      8.44993774e-005 8.44993774e-005 3.43003267e-005 3.43003267e-005
      3.43003267e-005 -4.84385528e-005 -4.84385528e-005 -4.84385528e-005
      -6.12924050e-005 -6.12924050e-005 -6.12924050e-005
      -1.38751666e-005 -1.38751666e-005 -1.38751666e-005
      -3.30485932e-007 -3.30485932e-007 -3.30485932e-007
      -1.25054487e-006 -1.25054487e-006 -1.25054487e-006
      -1.72307682e-006 -1.72307682e-006 -1.72307682e-006 5.31439298e-007
      5.31439298e-007 5.31439298e-007 2.98782084e-006 2.98782084e-006
      2.98782084e-006 -3.03259480e-006 -3.03259480e-006 -3.03259480e-006
      -5.19463310e-006 -5.19463310e-006 -5.19463310e-006
      -1.52383236e-005 -1.52383236e-005 -1.52383236e-005
      -6.17832848e-005 -6.17832848e-005 -6.17832848e-005
      -8.77370767e-005 -8.77370767e-005 -8.77370767e-005 4.53881439e-005
      4.53881439e-005 4.53881439e-005 1.69305626e-004 1.69305626e-004
      1.69305626e-004 2.34964260e-004 2.34964260e-004 2.34964260e-004
      1.71038453e-004 1.71038453e-004 1.71038453e-004 8.51579389e-005
      8.51579389e-005 8.51579389e-005 3.57730205e-005 3.57730205e-005
      3.57730205e-005 -9.01193118e-007 -9.01193118e-007 -9.01193118e-007
      -3.18802122e-005 -3.18802122e-005 -3.18802122e-005
      -1.14956252e-004 -1.14956252e-004 -1.14956252e-004
      -5.76508100e-005 -5.76508100e-005 -5.76508100e-005
      -1.18816934e-005 -1.18816934e-005 -1.18816934e-005
      -2.55627447e-006 -2.55627447e-006 -2.55627447e-006 4.28312489e-007
      4.28312489e-007 4.28312489e-007 -2.62339518e-006 -2.62339518e-006
      -2.62339518e-006 2.83145459e-006 2.83145459e-006 2.83145459e-006
      -9.50197045e-006 -9.50197045e-006 -9.50197045e-006
      -1.08729009e-005 -1.08729009e-005 -1.08729009e-005
      -6.45876571e-005 -6.45876571e-005 -6.45876571e-005
      -7.06766150e-005 -7.06766150e-005 -7.06766150e-005 3.09717592e-007
      3.09717592e-007 3.09717592e-007 3.92323345e-005 3.92323345e-005
      3.92323345e-005 3.33004864e-005 3.33004864e-005 3.33004864e-005
      4.15235845e-005 4.15235845e-005 4.15235845e-005 2.35858147e-006
      2.35858147e-006 2.35858147e-006 1.08498032e-004 1.08498032e-004
      1.08498032e-004 -1.07493295e-004 -1.07493295e-004 -1.07493295e-004
      -1.00443263e-004 -1.00443263e-004 -1.00443263e-004
      -4.96481844e-005 -4.96481844e-005 -4.96481844e-005 3.50667756e-006
      3.50667756e-006 3.50667756e-006 -6.96054558e-005 -6.96054558e-005
      -6.96054558e-005 -2.67493833e-005 -2.67493833e-005
      -2.67493833e-005 -3.64372681e-006 -3.64372681e-006
      -3.64372681e-006 1.64220566e-007 1.64220566e-007 1.64220566e-007
      7.61705280e-007 7.61705280e-007 7.61705280e-007 -2.41072576e-006
      -2.41072576e-006 -2.41072576e-006 -2.72741199e-005
      -2.72741199e-005 -2.72741199e-005 -5.02202638e-005
      -5.02202638e-005 -5.02202638e-005 -7.43200289e-005
      -7.43200289e-005 -7.43200289e-005 -1.82796066e-005
      -1.82796066e-005 -1.82796066e-005 3.35291152e-005 3.35291152e-005
      3.35291152e-005 8.74717989e-006 8.74717989e-006 8.74717989e-006
      4.00389945e-005 4.00389945e-005 4.00389945e-005 2.84808921e-004
      2.84808921e-004 2.84808921e-004 8.55259350e-005 8.55259350e-005
      8.55259350e-005 1.22220270e-004 1.22220270e-004 1.22220270e-004
      1.26251893e-004 1.26251893e-004 1.26251893e-004 -1.20153272e-004
      -1.20153272e-004 -1.20153272e-004 1.55385362e-006 1.55385362e-006
      1.55385362e-006 -5.56398008e-005 -5.56398008e-005 -5.56398008e-005
      -8.34498132e-005 -8.34498132e-005 -8.34498132e-005
      -1.37048901e-005 -1.37048901e-005 -1.37048901e-005
      -2.00689715e-006 -2.00689715e-006 -2.00689715e-006 4.59640751e-006
      4.59640751e-006 4.59640751e-006 4.04547109e-007 4.04547109e-007
      4.04547109e-007 4.42372630e-006 4.42372630e-006 4.42372630e-006
      -1.83438315e-005 -1.83438315e-005 -1.83438315e-005
      -1.90336559e-005 -1.90336559e-005 -1.90336559e-005 5.90714662e-005
      5.90714662e-005 5.90714662e-005 2.67774176e-005 2.67774176e-005
      2.67774176e-005 -4.22762241e-005 -4.22762241e-005 -4.22762241e-005
      1.03078863e-004 1.03078863e-004 1.03078863e-004 1.89465325e-004
      1.89465325e-004 1.89465325e-004 3.99599405e-004 3.99599405e-004
      3.99599405e-004 1.82818432e-004 1.82818432e-004 1.82818432e-004
      3.05005262e-004 3.05005262e-004 3.05005262e-004 2.93469784e-004
      2.93469784e-004 2.93469784e-004 8.96442361e-005 8.96442361e-005
      8.96442361e-005 1.79228839e-004 1.79228839e-004 1.79228839e-004
      9.52443734e-005 9.52443734e-005 9.52443734e-005 5.48741591e-005
      5.48741591e-005 5.48741591e-005 2.75129287e-006 2.75129287e-006
      2.75129287e-006 -1.55278144e-006 -1.55278144e-006 -1.55278144e-006
      -2.27131000e-006 -2.27131000e-006 -2.27131000e-006 1.71837121e-006
      1.71837121e-006 1.71837121e-006 -9.46998716e-006 -9.46998716e-006
      -9.46998716e-006 -2.87133043e-005 -2.87133043e-005
      -2.87133043e-005 7.56819427e-005 7.56819427e-005 7.56819427e-005
      2.41731195e-005 2.41731195e-005 2.41731195e-005 -1.44194171e-004
      -1.44194171e-004 -1.44194171e-004 8.07967717e-006 8.07967717e-006
      8.07967717e-006 1.44396836e-004 1.44396836e-004 1.44396836e-004
      1.44048710e-004 1.44048710e-004 1.44048710e-004 7.88738835e-005
      7.88738835e-005 7.88738835e-005 -1.50284643e-004 -1.50284643e-004
      -1.50284643e-004 -4.87664292e-005 -4.87664292e-005
      -4.87664292e-005 4.95425738e-005 4.95425738e-005 4.95425738e-005
      1.04290782e-004 1.04290782e-004 1.04290782e-004 1.74658795e-004
      1.74658795e-004 1.74658795e-004 1.10335066e-004 1.10335066e-004
      1.10335066e-004 -4.02116129e-005 -4.02116129e-005 -4.02116129e-005
      -5.24763936e-006 -5.24763936e-006 -5.24763936e-006
      -2.00645104e-006 -2.00645104e-006 -2.00645104e-006
      -3.49880736e-007 -3.49880736e-007 -3.49880736e-007 2.47832031e-006
      2.47832031e-006 2.47832031e-006 -5.59620639e-006 -5.59620639e-006
      -5.59620639e-006 8.96263646e-006 8.96263646e-006 8.96263646e-006
      3.12169941e-005 3.12169941e-005 3.12169941e-005 -1.22372454e-004
      -1.22372454e-004 -1.22372454e-004 -9.48356683e-005
      -9.48356683e-005 -9.48356683e-005 -3.13934720e-006
      -3.13934720e-006 -3.13934720e-006 -5.50316727e-005
      -5.50316727e-005 -5.50316727e-005 -1.57604809e-004
      -1.57604809e-004 -1.57604809e-004 -2.48275115e-004
      -2.48275115e-004 -2.48275115e-004 -2.69016746e-004
      -2.69016746e-004 -2.69016746e-004 -2.75406957e-004
      -2.75406957e-004 -2.75406957e-004 -3.10377363e-004
      -3.10377363e-004 -3.10377363e-004 1.25335805e-006 1.25335805e-006
      1.25335805e-006 1.52014705e-004 1.52014705e-004 1.52014705e-004
      1.39038268e-004 1.39038268e-004 1.39038268e-004 -9.02654356e-005
      -9.02654356e-005 -9.02654356e-005 -2.38855500e-005
      -2.38855500e-005 -2.38855500e-005 3.68623500e-006 3.68623500e-006
      3.68623500e-006 -2.57446709e-006 -2.57446709e-006 -2.57446709e-006
      -3.36531116e-006 -3.36531116e-006 -3.36531116e-006
      -7.82845018e-006 -7.82845018e-006 -7.82845018e-006 1.01721453e-005
      1.01721453e-005 1.01721453e-005 1.53372202e-005 1.53372202e-005
      1.53372202e-005 9.36147408e-005 9.36147408e-005 9.36147408e-005
      -1.23407764e-004 -1.23407764e-004 -1.23407764e-004 1.72609689e-005
      1.72609689e-005 1.72609689e-005 -1.01032048e-004 -1.01032048e-004
      -1.01032048e-004 -1.43867728e-004 -1.43867728e-004
      -1.43867728e-004 -4.11237241e-004 -4.11237241e-004
      -4.11237241e-004 -3.38326063e-004 -3.38326063e-004
      -3.38326063e-004 -2.69709650e-004 -2.69709650e-004
      -2.69709650e-004 -1.52963825e-004 -1.52963825e-004
      -1.52963825e-004 2.88214742e-005 2.88214742e-005 2.88214742e-005
      1.43896279e-004 1.43896279e-004 1.43896279e-004 1.25804028e-004
      1.25804028e-004 1.25804028e-004 3.64226471e-005 3.64226471e-005
      3.64226471e-005 -6.98315830e-007 -6.98315830e-007 -6.98315830e-007
      -9.98349719e-007 -9.98349719e-007 -9.98349719e-007 4.05098581e-006
      4.05098581e-006 4.05098581e-006 3.15353077e-006 3.15353077e-006
      3.15353077e-006 1.64630410e-006 1.64630410e-006 1.64630410e-006
      -2.58659929e-005 -2.58659929e-005 -2.58659929e-005 6.64100007e-005
      6.64100007e-005 6.64100007e-005 1.82252770e-004 1.82252770e-004
      1.82252770e-004 -1.23224308e-004 -1.23224308e-004 -1.23224308e-004
      -2.41027083e-005 -2.41027083e-005 -2.41027083e-005 1.58577132e-005
      1.58577132e-005 1.58577132e-005 -1.74951478e-004 -1.74951478e-004
      -1.74951478e-004 -4.05574276e-004 -4.05574276e-004
      -4.05574276e-004 -1.84554199e-004 -1.84554199e-004
      -1.84554199e-004 -1.07820000e-004 -1.07820000e-004
      -1.07820000e-004 -2.03838372e-005 -2.03838372e-005
      -2.03838372e-005 1.00971716e-004 1.00971716e-004 1.00971716e-004
      1.16065326e-004 1.16065326e-004 1.16065326e-004 6.47275447e-005
      6.47275447e-005 6.47275447e-005 1.02970698e-004 1.02970698e-004
      1.02970698e-004 -4.87916111e-007 -4.87916111e-007 -4.87916111e-007
      -7.97972234e-007 -7.97972234e-007 -7.97972234e-007
      -4.05270612e-006 -4.05270612e-006 -4.05270612e-006
      -1.61007949e-006 -1.61007949e-006 -1.61007949e-006
      -7.74789351e-006 -7.74789351e-006 -7.74789351e-006
      -2.85427577e-005 -2.85427577e-005 -2.85427577e-005
      -4.27289633e-005 -4.27289633e-005 -4.27289633e-005
      -1.69081613e-005 -1.69081613e-005 -1.69081613e-005
      -7.29643943e-005 -7.29643943e-005 -7.29643943e-005 5.48784883e-005
      5.48784883e-005 5.48784883e-005 -7.53072090e-005 -7.53072090e-005
      -7.53072090e-005 -3.25866335e-004 -3.25866335e-004
      -3.25866335e-004 -3.30099050e-004 -3.30099050e-004
      -3.30099050e-004 -2.47827178e-004 -2.47827178e-004
      -2.47827178e-004 -1.78605609e-004 -1.78605609e-004
      -1.78605609e-004 -1.88381018e-004 -1.88381018e-004
      -1.88381018e-004 -2.17086475e-004 -2.17086475e-004
      -2.17086475e-004 -4.81990583e-006 -4.81990583e-006
      -4.81990583e-006 5.94448538e-005 5.94448538e-005 5.94448538e-005
      7.09694868e-005 7.09694868e-005 7.09694868e-005 1.46060904e-006
      1.46060904e-006 1.46060904e-006 -6.59993248e-007 -6.59993248e-007
      -6.59993248e-007 -2.89203717e-006 -2.89203717e-006
      -2.89203717e-006 8.97757275e-007 8.97757275e-007 8.97757275e-007
      1.38134574e-005 1.38134574e-005 1.38134574e-005 5.99952655e-005
      5.99952655e-005 5.99952655e-005 -6.44885586e-005 -6.44885586e-005
      -6.44885586e-005 1.08488530e-004 1.08488530e-004 1.08488530e-004
      -7.30072716e-005 -7.30072716e-005 -7.30072716e-005
      -2.33795763e-005 -2.33795763e-005 -2.33795763e-005 1.07971609e-005
      1.07971609e-005 1.07971609e-005 -1.39498909e-004 -1.39498909e-004
      -1.39498909e-004 -1.65341873e-004 -1.65341873e-004
      -1.65341873e-004 -1.46978360e-004 -1.46978360e-004
      -1.46978360e-004 6.00195563e-005 6.00195563e-005 6.00195563e-005
      -1.56707902e-004 -1.56707902e-004 -1.56707902e-004
      -6.31855655e-005 -6.31855655e-005 -6.31855655e-005 1.46925013e-004
      1.46925013e-004 1.46925013e-004 5.85755697e-005 5.85755697e-005
      5.85755697e-005 1.40858747e-005 1.40858747e-005 1.40858747e-005
      -1.86943555e-006 -1.86943555e-006 -1.86943555e-006
      -1.88525132e-006 -1.88525132e-006 -1.88525132e-006
      -3.13975465e-006 -3.13975465e-006 -3.13975465e-006 1.81338942e-006
      1.81338942e-006 1.81338942e-006 1.96890214e-005 1.96890214e-005
      1.96890214e-005 1.47081897e-004 1.47081897e-004 1.47081897e-004
      1.23259117e-004 1.23259117e-004 1.23259117e-004 2.29412864e-004
      2.29412864e-004 2.29412864e-004 2.16966597e-004 2.16966597e-004
      2.16966597e-004 3.85759922e-004 3.85759922e-004 3.85759922e-004
      3.60152626e-004 3.60152626e-004 3.60152626e-004 1.88114791e-004
      1.88114791e-004 1.88114791e-004 -1.36903429e-004 -1.36903429e-004
      -1.36903429e-004 -7.06276405e-005 -7.06276405e-005
      -7.06276405e-005 2.61202185e-005 2.61202185e-005 2.61202185e-005
      -1.65590463e-004 -1.65590463e-004 -1.65590463e-004
      -9.09763476e-005 -9.09763476e-005 -9.09763476e-005 1.08552704e-004
      1.08552704e-004 1.08552704e-004 4.60163756e-006 4.60163756e-006
      4.60163756e-006 -3.27231783e-006 -3.27231783e-006 -3.27231783e-006
      8.34121124e-007 8.34121124e-007 8.34121124e-007 -2.88746431e-008
      -2.88746431e-008 -2.88746431e-008 1.47036030e-006 1.47036030e-006
      1.47036030e-006 -3.33567618e-006 -3.33567618e-006 -3.33567618e-006
      2.44225375e-005 2.44225375e-005 2.44225375e-005 8.56585175e-005
      8.56585175e-005 8.56585175e-005 1.67430509e-004 1.67430509e-004
      1.67430509e-004 2.55618885e-004 2.55618885e-004 2.55618885e-004
      2.26162651e-004 2.26162651e-004 2.26162651e-004 2.92647805e-004
      2.92647805e-004 2.92647805e-004 3.69364745e-004 3.69364745e-004
      3.69364745e-004 2.58133048e-004 2.58133048e-004 2.58133048e-004
      2.40065448e-004 2.40065448e-004 2.40065448e-004 1.50694730e-004
      1.50694730e-004 1.50694730e-004 -1.17683499e-004 -1.17683499e-004
      -1.17683499e-004 -1.48470906e-004 -1.48470906e-004
      -1.48470906e-004 -1.20812772e-004 -1.20812772e-004
      -1.20812772e-004 3.75242962e-005 3.75242962e-005 3.75242962e-005
      -2.09088539e-005 -2.09088539e-005 -2.09088539e-005
      -3.25344399e-006 -3.25344399e-006 -3.25344399e-006
      -7.46320154e-007 -7.46320154e-007 -7.46320154e-007
      -7.98529982e-007 -7.98529982e-007 -7.98529982e-007 1.99415339e-007
      1.99415339e-007 1.99415339e-007 4.14928792e-007 4.14928792e-007
      4.14928792e-007 9.91858815e-006 9.91858815e-006 9.91858815e-006
      4.35348375e-005 4.35348375e-005 4.35348375e-005 7.89384721e-005
      7.89384721e-005 7.89384721e-005 7.38730114e-006 7.38730114e-006
      7.38730114e-006 8.66803457e-005 8.66803457e-005 8.66803457e-005
      1.60981552e-004 1.60981552e-004 1.60981552e-004 1.92518914e-004
      1.92518914e-004 1.92518914e-004 2.01252828e-004 2.01252828e-004
      2.01252828e-004 1.64662124e-004 1.64662124e-004 1.64662124e-004
      3.18869970e-005 3.18869970e-005 3.18869970e-005 -8.86256894e-005
      -8.86256894e-005 -8.86256894e-005 -1.55686048e-005
      -1.55686048e-005 -1.55686048e-005 -1.48932857e-004
      -1.48932857e-004 -1.48932857e-004 -6.66638443e-005
      -6.66638443e-005 -6.66638443e-005 -1.59426472e-005
      -1.59426472e-005 -1.59426472e-005 -4.47145885e-006
      -4.47145885e-006 -4.47145885e-006 0. 0. 0. -2.01758468e-007
      -2.01758468e-007 -2.01758468e-007 1.78763230e-006 1.78763230e-006
      1.78763230e-006 4.03971853e-006 4.03971853e-006 4.03971853e-006
      -2.10490725e-007 -2.10490725e-007 -2.10490725e-007 3.14671274e-006
      3.14671274e-006 3.14671274e-006 -5.82393914e-005 -5.82393914e-005
      -5.82393914e-005 -8.48131895e-005 -8.48131895e-005
      -8.48131895e-005 -6.18307895e-005 -6.18307895e-005
      -6.18307895e-005 -8.09784542e-005 -8.09784542e-005
      -8.09784542e-005 -1.22676693e-005 -1.22676693e-005
      -1.22676693e-005 -5.03385809e-006 -5.03385809e-006
      -5.03385809e-006 9.23015978e-005 9.23015978e-005 9.23015978e-005
      -2.72399448e-005 -2.72399448e-005 -2.72399448e-005
      -2.26094999e-005 -2.26094999e-005 -2.26094999e-005 2.62334634e-005
      2.62334634e-005 2.62334634e-005 -2.99502972e-005 -2.99502972e-005
      -2.99502972e-005 -1.44754031e-005 -1.44754031e-005
      -1.44754031e-005 -3.32940317e-006 -3.32940317e-006
      -3.32940317e-006 -8.10761549e-007 -8.10761549e-007
      -8.10761549e-007 -3.13432338e-007 -3.13432338e-007
      -3.13432338e-007 -9.00846189e-008 -9.00846189e-008
      -9.00846189e-008 1.12885743e-006 1.12885743e-006 1.12885743e-006
      -7.01477745e-007 -7.01477745e-007 -7.01477745e-007
      -6.13520683e-007 -6.13520683e-007 -6.13520683e-007 1.39656152e-006
      1.39656152e-006 1.39656152e-006 1.98023577e-006 1.98023577e-006
      1.98023577e-006 3.07166806e-006 3.07166806e-006 3.07166806e-006
      -3.77468450e-006 -3.77468450e-006 -3.77468450e-006 5.66360586e-006
      5.66360586e-006 5.66360586e-006 1.49001698e-005 1.49001698e-005
      1.49001698e-005 6.63785158e-006 6.63785158e-006 6.63785158e-006
      -1.61596927e-005 -1.61596927e-005 -1.61596927e-005
      -1.73243607e-005 -1.73243607e-005 -1.73243607e-005
      -2.10279813e-006 -2.10279813e-006 -2.10279813e-006
      -3.49996481e-006 -3.49996481e-006 -3.49996481e-006
      -1.55137673e-006 -1.55137673e-006 -1.55137673e-006
      -4.15124589e-007 -4.15124589e-007 -4.15124589e-007 0. 0. 0.
      -1.54852330e-007 -1.54852330e-007 -1.54852330e-007
      -9.00846189e-008 -9.00846189e-008 -9.00846189e-008 0. 0. 0.
      7.44897363e-007 7.44897363e-007 7.44897363e-007 -1.23628456e-006
      -1.23628456e-006 -1.23628456e-006 5.13512850e-006 5.13512850e-006
      5.13512850e-006 1.55824716e-006 1.55824716e-006 1.55824716e-006
      8.45284490e-007 8.45284490e-007 8.45284490e-007 -1.56826968e-006
      -1.56826968e-006 -1.56826968e-006 -1.09510790e-006
      -1.09510790e-006 -1.09510790e-006 3.90720788e-006 3.90720788e-006
      3.90720788e-006 -1.46482580e-006 -1.46482580e-006 -1.46482580e-006
      1.18529249e-006 1.18529249e-006 1.18529249e-006 -2.23290135e-006
      -2.23290135e-006 -2.23290135e-006 -2.89441141e-006
      -2.89441141e-006 -2.89441141e-006 -1.13470537e-006
      -1.13470537e-006 -1.13470537e-006 4.49325626e-007 4.49325626e-007
      4.49325626e-007 -2.35807170e-006 -2.35807170e-006 -2.35807170e-006
      1.66377333e-006 1.66377333e-006 1.66377333e-006 -3.35021554e-007
      -3.35021554e-007 -3.35021554e-007 -1.33263086e-007
      -1.33263086e-007 -1.33263086e-007 0. 0. 0. -1.11673856e-007
      -1.11673856e-007 -1.11673856e-007</_>
    <_>
      3.61619504e-006 3.61619504e-006 3.61619504e-006 -9.65142863e-006
      -9.65142863e-006 -9.65142863e-006 -4.43066597e-007
      -4.43066597e-007 -4.43066597e-007 1.72544287e-006 1.72544287e-006
      1.72544287e-006 1.88060795e-007 1.88060795e-007 1.88060795e-007
      2.82800465e-006 2.82800465e-006 2.82800465e-006 -7.05129423e-006
      -7.05129423e-006 -7.05129423e-006 -5.43597889e-006
      -5.43597889e-006 -5.43597889e-006 1.12768430e-005 1.12768430e-005
      1.12768430e-005 -1.01576188e-005 -1.01576188e-005 -1.01576188e-005
      -8.46215971e-006 -8.46215971e-006 -8.46215971e-006 7.32436592e-006
      7.32436592e-006 7.32436592e-006 1.98211410e-006 1.98211410e-006
      1.98211410e-006 -2.61163632e-006 -2.61163632e-006 -2.61163632e-006
      1.24955227e-006 1.24955227e-006 1.24955227e-006 -4.28978865e-006
      -4.28978865e-006 -4.28978865e-006 -3.43084616e-006
      -3.43084616e-006 -3.43084616e-006 -5.56533541e-006
      -5.56533541e-006 -5.56533541e-006 -8.99213865e-006
      -8.99213865e-006 -8.99213865e-006 -3.62744254e-006
      -3.62744254e-006 -3.62744254e-006 -2.74510376e-006
      -2.74510376e-006 -2.74510376e-006 3.17332251e-006 3.17332251e-006
      3.17332251e-006 3.40277302e-006 3.40277302e-006 3.40277302e-006
      -7.31498358e-006 -7.31498358e-006 -7.31498358e-006 2.20282959e-006
      2.20282959e-006 2.20282959e-006 -1.32600326e-006 -1.32600326e-006
      -1.32600326e-006 -2.81349503e-006 -2.81349503e-006
      -2.81349503e-006 4.88154956e-006 4.88154956e-006 4.88154956e-006
      -2.19477570e-005 -2.19477570e-005 -2.19477570e-005 1.83626089e-005
      1.83626089e-005 1.83626089e-005 -7.58922215e-006 -7.58922215e-006
      -7.58922215e-006 -1.15720895e-005 -1.15720895e-005
      -1.15720895e-005 2.50588073e-007 2.50588073e-007 2.50588073e-007
      8.98292456e-006 8.98292456e-006 8.98292456e-006 5.75711226e-007
      5.75711226e-007 5.75711226e-007 7.29700844e-007 7.29700844e-007
      7.29700844e-007 -3.18041498e-006 -3.18041498e-006 -3.18041498e-006
      -5.47344007e-006 -5.47344007e-006 -5.47344007e-006
      -5.93566483e-006 -5.93566483e-006 -5.93566483e-006
      -2.18734229e-007 -2.18734229e-007 -2.18734229e-007 3.23562517e-006
      3.23562517e-006 3.23562517e-006 3.65314258e-006 3.65314258e-006
      3.65314258e-006 -5.42770294e-006 -5.42770294e-006 -5.42770294e-006
      -6.22987773e-006 -6.22987773e-006 -6.22987773e-006 1.45370529e-006
      1.45370529e-006 1.45370529e-006 -2.16010849e-005 -2.16010849e-005
      -2.16010849e-005 -6.97855558e-006 -6.97855558e-006
      -6.97855558e-006 -7.01634463e-006 -7.01634463e-006
      -7.01634463e-006 5.01609884e-006 5.01609884e-006 5.01609884e-006
      -3.88329609e-005 -3.88329609e-005 -3.88329609e-005
      -1.09501983e-004 -1.09501983e-004 -1.09501983e-004
      -1.98562455e-004 -1.98562455e-004 -1.98562455e-004
      -2.84590569e-005 -2.84590569e-005 -2.84590569e-005 3.93225382e-005
      3.93225382e-005 3.93225382e-005 -6.32934098e-005 -6.32934098e-005
      -6.32934098e-005 -3.68633810e-005 -3.68633810e-005
      -3.68633810e-005 1.97837962e-005 1.97837962e-005 1.97837962e-005
      -3.19003334e-006 -3.19003334e-006 -3.19003334e-006
      -8.06698063e-006 -8.06698063e-006 -8.06698063e-006
      -4.21139930e-006 -4.21139930e-006 -4.21139930e-006
      -9.40887639e-006 -9.40887639e-006 -9.40887639e-006
      -6.82790869e-006 -6.82790869e-006 -6.82790869e-006 3.57566546e-006
      3.57566546e-006 3.57566546e-006 -8.17142961e-007 -8.17142961e-007
      -8.17142961e-007 -7.94704829e-006 -7.94704829e-006
      -7.94704829e-006 -1.12558904e-004 -1.12558904e-004
      -1.12558904e-004 -1.53795394e-004 -1.53795394e-004
      -1.53795394e-004 -7.72532585e-005 -7.72532585e-005
      -7.72532585e-005 -1.13302289e-004 -1.13302289e-004
      -1.13302289e-004 3.44954824e-005 3.44954824e-005 3.44954824e-005
      7.46969017e-004 7.46969017e-004 7.46969017e-004 4.29289124e-004
      4.29289124e-004 4.29289124e-004 -7.20935350e-005 -7.20935350e-005
      -7.20935350e-005 -1.39791431e-004 -1.39791431e-004
      -1.39791431e-004 -3.70131223e-004 -3.70131223e-004
      -3.70131223e-004 -2.37945293e-004 -2.37945293e-004
      -2.37945293e-004 1.52150969e-004 1.52150969e-004 1.52150969e-004
      2.97933493e-005 2.97933493e-005 2.97933493e-005 -9.67130909e-005
      -9.67130909e-005 -9.67130909e-005 -8.31728903e-006
      -8.31728903e-006 -8.31728903e-006 4.04203229e-006 4.04203229e-006
      4.04203229e-006 5.51897074e-006 5.51897074e-006 5.51897074e-006
      -6.66213737e-007 -6.66213737e-007 -6.66213737e-007
      -1.76464055e-005 -1.76464055e-005 -1.76464055e-005
      -5.39725443e-005 -5.39725443e-005 -5.39725443e-005
      -1.76703499e-004 -1.76703499e-004 -1.76703499e-004
      -3.39695194e-004 -3.39695194e-004 -3.39695194e-004
      -2.19308655e-004 -2.19308655e-004 -2.19308655e-004
      -1.30338638e-004 -1.30338638e-004 -1.30338638e-004
      -1.68704049e-004 -1.68704049e-004 -1.68704049e-004 1.95777073e-004
      1.95777073e-004 1.95777073e-004 3.97924508e-004 3.97924508e-004
      3.97924508e-004 2.36044318e-004 2.36044318e-004 2.36044318e-004
      1.57762319e-004 1.57762319e-004 1.57762319e-004 8.59657375e-005
      8.59657375e-005 8.59657375e-005 -1.10120527e-004 -1.10120527e-004
      -1.10120527e-004 -2.13058374e-005 -2.13058374e-005
      -2.13058374e-005 -2.44198833e-004 -2.44198833e-004
      -2.44198833e-004 -1.20418284e-004 -1.20418284e-004
      -1.20418284e-004 -8.85591544e-006 -8.85591544e-006
      -8.85591544e-006 -1.96760375e-005 -1.96760375e-005
      -1.96760375e-005 -5.26488657e-006 -5.26488657e-006
      -5.26488657e-006 8.15171347e-007 8.15171347e-007 8.15171347e-007
      -6.20367209e-005 -6.20367209e-005 -6.20367209e-005
      -1.62182521e-004 -1.62182521e-004 -1.62182521e-004
      -1.42720120e-004 -1.42720120e-004 -1.42720120e-004
      -3.06945905e-004 -3.06945905e-004 -3.06945905e-004 8.40310167e-005
      8.40310167e-005 8.40310167e-005 -1.03560560e-004 -1.03560560e-004
      -1.03560560e-004 -2.16601780e-004 -2.16601780e-004
      -2.16601780e-004 -1.70635729e-004 -1.70635729e-004
      -1.70635729e-004 1.96492896e-004 1.96492896e-004 1.96492896e-004
      5.58311818e-004 5.58311818e-004 5.58311818e-004 2.38300199e-005
      2.38300199e-005 2.38300199e-005 -2.79603933e-004 -2.79603933e-004
      -2.79603933e-004 -2.11971783e-004 -2.11971783e-004
      -2.11971783e-004 -3.83645165e-005 -3.83645165e-005
      -3.83645165e-005 -3.44920554e-004 -3.44920554e-004
      -3.44920554e-004 -2.22318617e-004 -2.22318617e-004
      -2.22318617e-004 -3.35549812e-005 -3.35549812e-005
      -3.35549812e-005 2.91348306e-006 2.91348306e-006 2.91348306e-006
      -1.03101902e-005 -1.03101902e-005 -1.03101902e-005
      -1.24975156e-006 -1.24975156e-006 -1.24975156e-006
      -3.48386893e-005 -3.48386893e-005 -3.48386893e-005
      -1.03483770e-004 -1.03483770e-004 -1.03483770e-004
      -3.03092002e-005 -3.03092002e-005 -3.03092002e-005
      -2.48834403e-004 -2.48834403e-004 -2.48834403e-004 8.17334221e-005
      8.17334221e-005 8.17334221e-005 -1.70398722e-004 -1.70398722e-004
      -1.70398722e-004 -4.05635481e-004 -4.05635481e-004
      -4.05635481e-004 1.10849112e-004 1.10849112e-004 1.10849112e-004
      3.48074042e-004 3.48074042e-004 3.48074042e-004 3.01735592e-004
      3.01735592e-004 3.01735592e-004 1.99496164e-004 1.99496164e-004
      1.99496164e-004 -6.56871853e-005 -6.56871853e-005 -6.56871853e-005
      -1.94089916e-005 -1.94089916e-005 -1.94089916e-005 1.18793650e-006
      1.18793650e-006 1.18793650e-006 -5.39249682e-004 -5.39249682e-004
      -5.39249682e-004 -4.13204718e-004 -4.13204718e-004
      -4.13204718e-004 -1.01325721e-004 -1.01325721e-004
      -1.01325721e-004 -1.81282687e-007 -1.81282687e-007
      -1.81282687e-007 3.69921418e-006 3.69921418e-006 3.69921418e-006
      1.14485863e-006 1.14485863e-006 1.14485863e-006 9.84389590e-006
      9.84389590e-006 9.84389590e-006 3.57217614e-005 3.57217614e-005
      3.57217614e-005 -1.51113796e-004 -1.51113796e-004 -1.51113796e-004
      1.45723534e-004 1.45723534e-004 1.45723534e-004 -1.25781633e-004
      -1.25781633e-004 -1.25781633e-004 -2.64100468e-004
      -2.64100468e-004 -2.64100468e-004 -7.70216357e-005
      -7.70216357e-005 -7.70216357e-005 -2.31919577e-004
      -2.31919577e-004 -2.31919577e-004 7.69580365e-005 7.69580365e-005
      7.69580365e-005 4.02977967e-005 4.02977967e-005 4.02977967e-005
      -3.09574680e-005 -3.09574680e-005 -3.09574680e-005 5.23331400e-004
      5.23331400e-004 5.23331400e-004 5.42207970e-004 5.42207970e-004
      5.42207970e-004 4.37929091e-004 4.37929091e-004 4.37929091e-004
      3.10273899e-005 3.10273899e-005 3.10273899e-005 -9.17614016e-005
      -9.17614016e-005 -9.17614016e-005 -1.71065276e-005
      -1.71065276e-005 -1.71065276e-005 -4.53926987e-006
      -4.53926987e-006 -4.53926987e-006 1.57672584e-005 1.57672584e-005
      1.57672584e-005 -3.89011439e-006 -3.89011439e-006 -3.89011439e-006
      8.19868637e-006 8.19868637e-006 8.19868637e-006 1.57276372e-004
      1.57276372e-004 1.57276372e-004 -1.60989541e-004 -1.60989541e-004
      -1.60989541e-004 2.34590014e-004 2.34590014e-004 2.34590014e-004
      8.01762362e-005 8.01762362e-005 8.01762362e-005 -3.17293780e-005
      -3.17293780e-005 -3.17293780e-005 -6.61303329e-006
      -6.61303329e-006 -6.61303329e-006 -5.34114311e-004
      -5.34114311e-004 -5.34114311e-004 -4.88317513e-004
      -4.88317513e-004 -4.88317513e-004 1.31408538e-004 1.31408538e-004
      1.31408538e-004 2.83244590e-004 2.83244590e-004 2.83244590e-004
      3.65541491e-004 3.65541491e-004 3.65541491e-004 4.68141487e-004
      4.68141487e-004 4.68141487e-004 4.27692168e-004 4.27692168e-004
      4.27692168e-004 1.78244911e-004 1.78244911e-004 1.78244911e-004
      -1.41349601e-005 -1.41349601e-005 -1.41349601e-005
      -2.48333367e-006 -2.48333367e-006 -2.48333367e-006
      -1.82196970e-007 -1.82196970e-007 -1.82196970e-007 3.93086384e-006
      3.93086384e-006 3.93086384e-006 4.63625838e-006 4.63625838e-006
      4.63625838e-006 7.23884950e-005 7.23884950e-005 7.23884950e-005
      2.32619335e-004 2.32619335e-004 2.32619335e-004 -2.11713035e-004
      -2.11713035e-004 -2.11713035e-004 -1.18934477e-005
      -1.18934477e-005 -1.18934477e-005 -1.26638639e-004
      -1.26638639e-004 -1.26638639e-004 2.30654787e-005 2.30654787e-005
      2.30654787e-005 -1.28099127e-004 -1.28099127e-004 -1.28099127e-004
      -6.24386594e-004 -6.24386594e-004 -6.24386594e-004
      -5.56421815e-004 -5.56421815e-004 -5.56421815e-004
      -1.07292901e-004 -1.07292901e-004 -1.07292901e-004 2.20645365e-004
      2.20645365e-004 2.20645365e-004 1.13592694e-004 1.13592694e-004
      1.13592694e-004 1.66895057e-004 1.66895057e-004 1.66895057e-004
      4.39637515e-004 4.39637515e-004 4.39637515e-004 2.24734380e-004
      2.24734380e-004 2.24734380e-004 1.51283348e-005 1.51283348e-005
      1.51283348e-005 7.98818576e-007 7.98818576e-007 7.98818576e-007
      4.18561194e-006 4.18561194e-006 4.18561194e-006 -7.16256500e-006
      -7.16256500e-006 -7.16256500e-006 -7.34880075e-007
      -7.34880075e-007 -7.34880075e-007 1.89912287e-004 1.89912287e-004
      1.89912287e-004 4.13234200e-004 4.13234200e-004 4.13234200e-004
      3.72760900e-004 3.72760900e-004 3.72760900e-004 -7.06042920e-005
      -7.06042920e-005 -7.06042920e-005 2.56776897e-004 2.56776897e-004
      2.56776897e-004 1.91528801e-004 1.91528801e-004 1.91528801e-004
      -2.62106769e-004 -2.62106769e-004 -2.62106769e-004
      -8.95185862e-004 -8.95185862e-004 -8.95185862e-004
      -1.86586432e-004 -1.86586432e-004 -1.86586432e-004 1.61712651e-005
      1.61712651e-005 1.61712651e-005 -2.02674237e-005 -2.02674237e-005
      -2.02674237e-005 1.82877528e-004 1.82877528e-004 1.82877528e-004
      -6.55605618e-005 -6.55605618e-005 -6.55605618e-005 3.31985182e-004
      3.31985182e-004 3.31985182e-004 2.19586072e-004 2.19586072e-004
      2.19586072e-004 3.57618846e-005 3.57618846e-005 3.57618846e-005
      -7.80634366e-008 -7.80634366e-008 -7.80634366e-008 8.13766837e-006
      8.13766837e-006 8.13766837e-006 1.37399074e-005 1.37399074e-005
      1.37399074e-005 1.58823914e-005 1.58823914e-005 1.58823914e-005
      1.98192443e-004 1.98192443e-004 1.98192443e-004 4.89749771e-004
      4.89749771e-004 4.89749771e-004 6.67688961e-004 6.67688961e-004
      6.67688961e-004 1.33248221e-004 1.33248221e-004 1.33248221e-004
      1.03328974e-004 1.03328974e-004 1.03328974e-004 2.42311769e-004
      2.42311769e-004 2.42311769e-004 -5.90874231e-004 -5.90874231e-004
      -5.90874231e-004 -9.65843734e-004 -9.65843734e-004
      -9.65843734e-004 2.38904220e-004 2.38904220e-004 2.38904220e-004
      -1.88399572e-005 -1.88399572e-005 -1.88399572e-005
      -2.81111686e-004 -2.81111686e-004 -2.81111686e-004 4.21819677e-005
      4.21819677e-005 4.21819677e-005 -3.37803322e-005 -3.37803322e-005
      -3.37803322e-005 2.18915477e-004 2.18915477e-004 2.18915477e-004
      1.36051909e-004 1.36051909e-004 1.36051909e-004 1.75486857e-005
      1.75486857e-005 1.75486857e-005 3.04074206e-006 3.04074206e-006
      3.04074206e-006 6.53520033e-007 6.53520033e-007 6.53520033e-007
      -1.08716058e-005 -1.08716058e-005 -1.08716058e-005 1.98069101e-005
      1.98069101e-005 1.98069101e-005 1.54803711e-004 1.54803711e-004
      1.54803711e-004 2.08877362e-004 2.08877362e-004 2.08877362e-004
      2.76997278e-004 2.76997278e-004 2.76997278e-004 3.18526785e-004
      3.18526785e-004 3.18526785e-004 5.56884333e-004 5.56884333e-004
      5.56884333e-004 2.67495052e-004 2.67495052e-004 2.67495052e-004
      -5.13966253e-004 -5.13966253e-004 -5.13966253e-004
